svm_type c_svc
kernel_type rbf
gamma 0.0078125
nr_class 4
total_sv 86
rho -0.00139194 0.385614 0.170954 0.112674 0.0804602 -0.031934
label 4 7 8 9
nr_sv 12 19 35 20
SV
0 0 2.674978379160815 0:0.0087471548 1:0.00017176504 2:0.00051398651 3:0 4:0.02574818 5:0.010712088 6:0.015557254 7:0.070322253 8:0.082579672 9:0.046666805 10:0.13553911 11:0.14239007 12:0 13:0.039912611 14:0.01678909 15:0.030899016 16:0.072854616 17:0.097737491 18:0.10290144 19:0.12743235 20:0.46336377 21:0 22:0.001542252 23:0.0070947055 24:0.05415374 25:0.1036434 26:0.10150716 27:0.29006168 28:0.50720185 29:0.50720185 30:0 31:0.011088633 32:0.016313929 33:0.062101718 34:0.098388076 35:0.21313354 36:0.11676823 37:0.093838088 38:0.19056532 39:0.0016025073 40:0.01191609 41:0.0049580187 42:0.0061471085 43:0.012804268 44:0.055980306 45:0.30061623 46:0.087234251 47:0.15812452 48:0.012013556 49:0.086258188 50:0.022568202 51:0.054207236 52:0.014732474 53:0.20222734 54:0.30061623 55:0.30061623 56:0.30061623 57:0.0038679775 58:0.0069707567 59:0.027498079 60:0.013951551 61:0.019570524 62:0.18687087 63:0.30061623 64:0.23936605 65:0.30061623 66:0.041277591 67:0.30061623 68:0.13322401 69:0.11772427 70:0.0095216865 71:0.30061623 72:0.29850647 73:0.037695877 74:0.021642376 75:0.027120946 76:0.30913293 77:0.063719146 78:0.128647 79:0.019226955 80:0.3019636 81:0.010659077 82:0 83:0 84:0.010946941 85:0.1898403 86:0.031327087 87:0.040029172 88:0.010162137 89:0.064568229 90:0.36712921 91:0.037885904 92:0.03192858 93:0.14373238 94:0.36712921 95:0.14623106 96:0.27721992 97:0.016044352 98:0.29299027 99:0.088660501 100:0.0011418101 101:0.0038925672 102:0.081878729 103:0.36712921 104:0.045525301 105:0.12814376 106:0.026434068 107:0.090405852 108:0.1162042 109:0.12700547 110:0.30036446 111:0.00066709582 112:0.11669794 113:0.021109546 114:0.010596292 115:0.010987403 116:0.022372896 117:0.20070373 118:0.30036446 119:0.30036446 120:0.0042793169 121:0.17863834 122:0.015679132 123:0.012779935 124:0.0074861934 125:0.091705181 126:0.17018683 127:0.088990033 128:0.22830389 129:0.0011439641 130:0.30036446 131:0.094636291 132:0.080266185 133:0.016794758 134:0.15775199 135:0.30036446 136:0.1486965 137:0.28820801 138:0.0064189755 139:0.30036446 140:0.050669007 141:0.050604455 142:0.0055709113 143:0.30036446 144:0.27733764 145:0.27733764 146:0.27733764 147:0.011980044 148:0.079137877 149:0.039940413 150:0.01196923 151:0.0048474744 152:0.16422313 153:0.27733764 154:0.1071523 155:0.18851385 156:0.031157779 157:0.27733764 158:0.15978463 159:0.076707833 160:0.0031295158 161:0.15272045 162:0.27733764 163:0.087471902 164:0.15626626 165:0.009969973 166:0.10602891 167:0.026474142 168:0.030760299 169:0.0050084316 170:0.27733764 171:0.27733764 172:0.051020112 173:0.16419838 174:0.030660192 175:0.27733764 176:0.090661593 177:0.07916525 178:0.0107667 179:0.27733764 180:0.20866889 181:0.01353697 182:0.036611825 183:0.054142635 184:0.29352957 185:0.07911332 186:0.17629008 187:0.018850243 188:0.10986415 189:0.24304268 190:0.0099745663 191:0.0050468659 192:0.054435279 193:0.29352957 194:0.013040406 195:0.16908593 196:0.067363761 197:0.11740247 198:0.29352957 199:0.1311826 200:0.13731386 201:0.054755248 202:0.29352957 203:0.050183676 204:0.13355987 205:0.02862243 206:0.23678249 207:0.29352957 208:0.17912827 209:0.20438215 210:0.086238235 211:0.29352957 212:0.014220205 213:0.16179487 214:0.097076438 215:0.1992636 216:0.31274578 217:0.0063475957 218:0.025870726 219:0.0010481111 220:0.35152444 221:0.078651689 222:0.19557087 223:0.050111689 224:0.35152444 225:0.35152444 226:0.0023125827 227:0.0067040063 228:0.0014895545 229:0.10450815 230:0.039031375 231:0.07583303 232:0.017623415 233:0.35152444 234:0.16152765 235:0 236:0.00026592141 237:0.00054393784 238:0.055084169 239:0.0099994689 240:0.057115559 241:0.026071478 242:0.2386338 243:0.35152444 244:0.0018239054 245:0.001344186 246:0 247:0.018546157 248:0.0013788503 249:0.020086592 250:0.013342759 251:0.35152444 252:0.28794828 253:0.003353446 254:0.0068819569 255:0.0013427635 256:0.047524057 257:0.01115889 258:0.067971528 259:0.01248053 260:0.28794828 261:0.28794828 262:0.06805753 263:0.10737663 264:0.07878343 265:0.28794828 266:0.066767536 267:0.28794828 268:0.080108441 269:0.28794828 270:0.21642789 271:0.0019620394 272:0.0014459883 273:0.0024910953 274:0.075214915 275:0.0084636472 276:0.038103111 277:0.0082245721 278:0.26558706 279:0.25472125 280:0.055427153 281:0.090165198 282:0.05800603 283:0.28794828 284:0.046149455 285:0.28084123 286:0.090865865 287:0.28794828 288:0.24784695 289:0.24784695 290:0.24784695 291:0.19718051 292:0.24784695 293:0.05222461 294:0.16499656 295:0.06141207 296:0.21729004 297:0.24784695 298:0.24784695 299:0.24784695 300:0.11752931 301:0.24784695 302:0.032551013 303:0.029003086 304:0.043211449 305:0.12258704 306:0.22728501 307:0.13904029 308:0.20101115 309:0.13508976 310:0.24784695 311:0.029992256 312:0.17259789 313:0.070997022 314:0.18275771 315:0.1183065 316:0.072934881 317:0.076373093 318:0.064841792 319:0.24784695 320:0.031434145 321:0.0073203435 322:0.018818729 323:0.035921827 324:0 325:0 326:0 327:0 328:0 329:0 330:0 331:0 332:0 333:0 334:0 335:0 336:0 337:0 338:0 339:0 340:0 341:0 342:0 343:0 344:0 345:0 346:0 347:0 348:0 349:0 350:0 351:0 352:0 353:0 354:0 355:0 356:0 357:0 358:0 359:0 360:0 361:0 362:0 363:0 364:0 365:0 366:0 367:0 368:0 369:0 370:0 371:0 372:0 373:0 374:0 375:0 376:0 377:0 378:0 379:0 380:0 381:0 382:0 383:0 384:0 385:0 386:0 387:0 388:0 389:0 390:0 391:0 392:0 393:0 394:0 395:0 396:0 397:0 398:0 399:0 400:0 401:0 402:0 403:0 404:0 405:0 406:0 407:0 408:0 409:0 410:0 411:0 412:0 413:0 414:0 415:0 416:0 417:0 418:0 419:0 420:0 421:0 422:0 423:0 424:0 425:0 426:0 427:0 428:0 429:0 430:0 431:0 432:0 433:0 434:0 435:0 436:0 437:0 438:0 439:0 440:0 441:0 442:0 443:0 444:0 445:0 446:0 447:0 448:0 449:0 450:0 451:0 452:0 453:0 454:0 455:0 456:0 457:0 458:0 459:0 460:0 461:0 462:0 463:0 464:0 465:0 466:0 467:0 468:0 469:0 470:0 471:0 472:0 473:0 474:0 475:0 476:0 477:0 478:0 479:0 480:0 481:0 482:0 483:0 484:0 485:0 486:0 487:0 488:0 489:0 490:0 491:0 492:0 493:0 494:0 495:0 496:0 497:0 498:0 499:0 500:0 501:0 502:0 503:0 504:0 505:0 506:0 507:0 508:0 509:0 510:0 511:0 512:0 513:0 514:0 515:0 516:0 517:0 518:0 519:0 520:0 521:0 522:0 523:0 524:0 525:0 526:0 527:0 528:0 529:0 530:0 531:0 532:0 533:0 534:0 535:0 536:0 537:0 538:0 539:0 540:0 541:0 542:0 543:0 544:0 545:0 546:0 547:0 548:0 549:0 550:0 551:0 552:0 553:0 554:0 555:0 556:0 557:0 558:0 559:0 560:0 561:0 562:0 563:0 564:0 565:0 566:0 567:0 568:0 569:0 570:0 571:0 572:0 573:0 574:0 575:0 576:0 577:0 578:0 579:0 580:0 581:0 582:0 583:0 584:0 585:0 586:0 587:0 588:0 589:0 590:0 591:0 592:0 593:0 594:0 595:0 596:0 597:0 598:0 599:0 600:0 601:0 602:0 603:0 604:0 605:0 606:0 607:0 608:0 609:0 610:0 611:0 612:0 613:0 614:0 615:0 616:0 617:0 618:0 619:0 620:0 621:0 622:0 623:0 624:0 625:0 626:0 627:0 628:0 629:0 630:0 631:0 632:0 633:0 634:0 635:0 636:0 637:0 638:0 639:0 640:0 641:0 642:0 643:0 644:0 645:0 646:0 647:0 648:0 649:0 650:0 651:0 652:0 653:0 654:0 655:0 656:0 657:0 658:0 659:0 660:0 661:0 662:0 663:0 664:0 665:0 666:0 667:0 668:0 669:0 670:0 671:0 672:0 673:0 674:0 675:0 676:0 677:0 678:0 679:0 680:0 681:0 682:0 683:0 684:0 685:0 686:0 687:0 688:0 689:0 690:0 691:0 692:0 693:0 694:0 695:0 696:0 697:0 698:0 699:0 700:0 701:0 702:0 703:0 704:0 705:0 706:0 707:0 708:0 709:0 710:0 711:0 712:0 713:0 714:0 715:0 716:0 717:0 718:0 719:0 720:0 721:0 722:0 723:0 724:0 725:0 726:0 727:0 728:0 729:0 730:0 731:0 732:0 733:0 734:0 735:0 736:0 737:0 738:0 739:0 740:0 741:0 742:0 743:0 744:0 745:0 746:0 747:0 748:0 749:0 750:0 751:0 752:0 753:0 754:0 755:0 756:0 757:0 758:0 759:0 760:0 761:0 762:0 763:0 764:0 765:0 766:0 767:0 768:0 769:0 770:0 771:0 772:0 773:0 774:0 775:0 776:0 777:0 778:0 779:0 780:0 781:0 782:0 783:0 784:0 785:0 786:0 787:0 788:0 789:0 790:0 791:0 792:0 793:0 794:0 795:0 796:0 797:0 798:0 799:0 800:0 801:0 802:0 803:0 804:0 805:0 806:0 807:0 808:0 809:0 810:0 811:0 812:0 813:0 814:0 815:0 816:0 817:0 818:0 819:0 820:0 821:0 822:0 823:0 824:0 825:0 826:0 827:0 828:0 829:0 830:0 831:0 832:0 833:0 834:0 835:0 836:0 837:0 838:0 839:0 840:0 841:0 842:0 843:0 844:0 845:0 846:0 847:0 848:0 849:0 850:0 851:0 852:0 853:0 854:0 855:0 856:0 857:0 858:0 859:0 860:0 861:0 862:0 863:0 864:0 865:0 866:0 867:0 868:0 869:0 870:0 871:0 872:0 873:0 874:0 875:0 876:0 877:0 878:0 879:0 880:0 881:0 882:0 883:0 884:0 885:0 886:0 887:0 888:0 889:0 890:0 891:0 892:0 893:0 894:0 895:0 896:0 897:0 898:0 899:0 
3.843018105303953 0 0 0:0.0099139996 1:0.003427732 2:0.0015818144 3:0 4:0.094027907 5:0.016690541 6:0.039438557 7:0.047175728 8:0.01371605 9:0.022484392 10:0.083578587 11:0.047380988 12:0.0092454385 13:0.14148486 14:0.045306437 15:0.079967558 16:0.059491813 17:0.017303223 18:0.1579044 19:0.17853527 20:0.29911327 21:0.0034170474 22:0.01919066 23:0.073775806 24:0.078780271 25:0.049394231 26:0.036609013 27:0.48885795 28:0.48885795 29:0.48885795 30:0.0023113596 31:0.015941035 32:0.11438303 33:0.13875578 34:0.080646388 35:0.1471657 36:0.050676446 37:0.091120876 38:0.12244614 39:0.0020123881 40:0.031427097 41:0.0092013236 42:0.012618038 43:0.006139582 44:0.026718905 45:0.27568665 46:0.10145158 47:0.21613263 48:0.0058980705 49:0.071200363 50:0.028743399 51:0.0113806 52:0.031608716 53:0.20842016 54:0.23083271 55:0.3154321 56:0.3154321 57:0.0042738584 58:0.0037645628 59:0.031758245 60:0.022885453 61:0.0099246185 62:0.10541295 63:0.3154321 64:0.3154321 65:0.3154321 66:0.08517278 67:0.3154321 68:0.10616636 69:0.04693149 70:0.047126997 71:0.3154321 72:0.2790477 73:0.029034538 74:0.070952892 75:0.035207022 76:0.21019411 77:0.11141733 78:0.046022844 79:0.075486183 80:0.29869682 81:0.043510187 82:0.0021949569 83:0.0007549029 84:0.027944719 85:0.26127496 86:0.07706026 87:0.030513059 88:0.018871546 89:0.078668095 90:0.29869682 91:0.09036494 92:0.14301063 93:0.29869682 94:0.29869682 95:0.2062421 96:0.13339892 97:0.11324304 98:0.29869682 99:0.095364511 100:0.00054873904 101:0.0030196109 102:0.2281975 103:0.29869682 104:0.14774784 105:0.1124793 106:0.031400625 107:0.17182675 108:0.062153284 109:0.15113901 110:0.2876372 111:0.0028823561 112:0.044590794 113:0.018590312 114:0.0078671584 115:0.0023157713 116:0.0075289528 117:0.28051436 118:0.2876372 119:0.2876372 120:0.0092569711 121:0.132209 122:0.02403089 123:0.010264405 124:0.0039812429 125:0.066192977 126:0.15488404 127:0.16699196 128:0.2876372 129:0.0019215703 130:0.2876372 131:0.04213924 132:0.071903884 133:0.030755263 134:0.097601965 135:0.2876372 136:0.2876372 137:0.2876372 138:0.013885457 139:0.22689027 140:0.024156353 141:0.018023949 142:0.01123703 143:0.2876372 144:0.20539691 145:0.26803902 146:0.26803902 147:0.013505813 148:0.052739669 149:0.023335122 150:0.0077310959 151:0.0013009688 152:0.075920075 153:0.15975843 154:0.26803902 155:0.26803902 156:0.071962282 157:0.26803902 158:0.085122786 159:0.04296248 160:0.0041917283 161:0.087139174 162:0.26803902 163:0.26803902 164:0.14309284 165:0.013368582 166:0.085034259 167:0.010174093 168:0.016046438 169:0.010950322 170:0.26803902 171:0.26803902 172:0.26803902 173:0.13949056 174:0.031782288 175:0.24930356 176:0.034843214 177:0.10446315 178:0.043522507 179:0.23439287 180:0.12775473 181:0.071078002 182:0.061894957 183:0.16541162 184:0.28018749 185:0.080111951 186:0.11875927 187:0.018485371 188:0.1793033 189:0.21654342 190:0.00061013893 191:0.0030364338 192:0.11368025 193:0.2155557 194:0.044962838 195:0.16018145 196:0.076903179 197:0.28018749 198:0.28018749 199:0.13359979 200:0.13060312 201:0.03277652 202:0.28018749 203:0.03452323 204:0.12466102 205:0.037482698 206:0.28018749 207:0.28018749 208:0.10155711 209:0.24687226 210:0.11081044 211:0.17498593 212:0.017231438 213:0.1477236 214:0.10866956 215:0.28018749 216:0.32268631 217:0.06333939 218:0.12170223 219:0 220:0.32268631 221:0.04571268 222:0.19383992 223:0.070045859 224:0.32268631 225:0.32268631 226:0.31980771 227:0.042224638 228:0.0033657048 229:0.086210012 230:0.011598486 231:0.058102034 232:0.023712287 233:0.32268631 234:0.21604897 235:0.0059502306 236:0.00095971453 237:0 238:0.07207384 239:0.0040348424 240:0.053835697 241:0.01799099 242:0.20915902 243:0.32268631 244:0.075563669 245:0.0065676137 246:0 247:0.058315348 248:0.010382017 249:0.028393654 250:0.0094886851 251:0.289821 252:0.29903096 253:0.28898731 254:0.0024689899 255:0.002669371 256:0.066249728 257:0.019920142 258:0.051822174 259:0.045475148 260:0.29903096 261:0.29903096 262:0.16364545 263:0.13586561 264:0.0075988518 265:0.29903096 266:0.073046193 267:0.29903096 268:0.17989111 269:0.29903096 270:0.1755736 271:0.062463101 272:0.0059832842 273:0.0023898592 274:0.11413436 275:0.023486728 276:0.024373841 277:0.022721224 278:0.10823966 279:0.14463216 280:0.036955655 281:0.075292207 282:0.015577532 283:0.29903096 284:0.065551415 285:0.19099259 286:0.085993513 287:0.23974164 288:0.27680275 289:0.15229931 290:0.27680275 291:0.013339653 292:0.27680275 293:0.043505583 294:0.20917441 295:0.090843245 296:0.27680275 297:0.27680275 298:0.13491324 299:0.27680275 300:0.061160643 301:0.22849905 302:0.035348997 303:0.033157434 304:0.028208291 305:0.27680275 306:0.11020831 307:0.050128456 308:0.14895625 309:0.018975206 310:0.27680275 311:0.037590493 312:0.13208917 313:0.050594945 314:0.26475215 315:0.051642518 316:0.020374784 317:0.054942049 318:0.010173665 319:0.27680275 320:0.030432239 321:0.014162497 322:0.0075596329 323:0.13029255 324:0 325:0 326:0 327:0 328:0 329:0 330:0 331:0 332:0 333:0 334:0 335:0 336:0 337:0 338:0 339:0 340:0 341:0 342:0 343:0 344:0 345:0 346:0 347:0 348:0 349:0 350:0 351:0 352:0 353:0 354:0 355:0 356:0 357:0 358:0 359:0 360:0 361:0 362:0 363:0 364:0 365:0 366:0 367:0 368:0 369:0 370:0 371:0 372:0 373:0 374:0 375:0 376:0 377:0 378:0 379:0 380:0 381:0 382:0 383:0 384:0 385:0 386:0 387:0 388:0 389:0 390:0 391:0 392:0 393:0 394:0 395:0 396:0 397:0 398:0 399:0 400:0 401:0 402:0 403:0 404:0 405:0 406:0 407:0 408:0 409:0 410:0 411:0 412:0 413:0 414:0 415:0 416:0 417:0 418:0 419:0 420:0 421:0 422:0 423:0 424:0 425:0 426:0 427:0 428:0 429:0 430:0 431:0 432:0 433:0 434:0 435:0 436:0 437:0 438:0 439:0 440:0 441:0 442:0 443:0 444:0 445:0 446:0 447:0 448:0 449:0 450:0 451:0 452:0 453:0 454:0 455:0 456:0 457:0 458:0 459:0 460:0 461:0 462:0 463:0 464:0 465:0 466:0 467:0 468:0 469:0 470:0 471:0 472:0 473:0 474:0 475:0 476:0 477:0 478:0 479:0 480:0 481:0 482:0 483:0 484:0 485:0 486:0 487:0 488:0 489:0 490:0 491:0 492:0 493:0 494:0 495:0 496:0 497:0 498:0 499:0 500:0 501:0 502:0 503:0 504:0 505:0 506:0 507:0 508:0 509:0 510:0 511:0 512:0 513:0 514:0 515:0 516:0 517:0 518:0 519:0 520:0 521:0 522:0 523:0 524:0 525:0 526:0 527:0 528:0 529:0 530:0 531:0 532:0 533:0 534:0 535:0 536:0 537:0 538:0 539:0 540:0 541:0 542:0 543:0 544:0 545:0 546:0 547:0 548:0 549:0 550:0 551:0 552:0 553:0 554:0 555:0 556:0 557:0 558:0 559:0 560:0 561:0 562:0 563:0 564:0 565:0 566:0 567:0 568:0 569:0 570:0 571:0 572:0 573:0 574:0 575:0 576:0 577:0 578:0 579:0 580:0 581:0 582:0 583:0 584:0 585:0 586:0 587:0 588:0 589:0 590:0 591:0 592:0 593:0 594:0 595:0 596:0 597:0 598:0 599:0 600:0 601:0 602:0 603:0 604:0 605:0 606:0 607:0 608:0 609:0 610:0 611:0 612:0 613:0 614:0 615:0 616:0 617:0 618:0 619:0 620:0 621:0 622:0 623:0 624:0 625:0 626:0 627:0 628:0 629:0 630:0 631:0 632:0 633:0 634:0 635:0 636:0 637:0 638:0 639:0 640:0 641:0 642:0 643:0 644:0 645:0 646:0 647:0 648:0 649:0 650:0 651:0 652:0 653:0 654:0 655:0 656:0 657:0 658:0 659:0 660:0 661:0 662:0 663:0 664:0 665:0 666:0 667:0 668:0 669:0 670:0 671:0 672:0 673:0 674:0 675:0 676:0 677:0 678:0 679:0 680:0 681:0 682:0 683:0 684:0 685:0 686:0 687:0 688:0 689:0 690:0 691:0 692:0 693:0 694:0 695:0 696:0 697:0 698:0 699:0 700:0 701:0 702:0 703:0 704:0 705:0 706:0 707:0 708:0 709:0 710:0 711:0 712:0 713:0 714:0 715:0 716:0 717:0 718:0 719:0 720:0 721:0 722:0 723:0 724:0 725:0 726:0 727:0 728:0 729:0 730:0 731:0 732:0 733:0 734:0 735:0 736:0 737:0 738:0 739:0 740:0 741:0 742:0 743:0 744:0 745:0 746:0 747:0 748:0 749:0 750:0 751:0 752:0 753:0 754:0 755:0 756:0 757:0 758:0 759:0 760:0 761:0 762:0 763:0 764:0 765:0 766:0 767:0 768:0 769:0 770:0 771:0 772:0 773:0 774:0 775:0 776:0 777:0 778:0 779:0 780:0 781:0 782:0 783:0 784:0 785:0 786:0 787:0 788:0 789:0 790:0 791:0 792:0 793:0 794:0 795:0 796:0 797:0 798:0 799:0 800:0 801:0 802:0 803:0 804:0 805:0 806:0 807:0 808:0 809:0 810:0 811:0 812:0 813:0 814:0 815:0 816:0 817:0 818:0 819:0 820:0 821:0 822:0 823:0 824:0 825:0 826:0 827:0 828:0 829:0 830:0 831:0 832:0 833:0 834:0 835:0 836:0 837:0 838:0 839:0 840:0 841:0 842:0 843:0 844:0 845:0 846:0 847:0 848:0 849:0 850:0 851:0 852:0 853:0 854:0 855:0 856:0 857:0 858:0 859:0 860:0 861:0 862:0 863:0 864:0 865:0 866:0 867:0 868:0 869:0 870:0 871:0 872:0 873:0 874:0 875:0 876:0 877:0 878:0 879:0 880:0 881:0 882:0 883:0 884:0 885:0 886:0 887:0 888:0 889:0 890:0 891:0 892:0 893:0 894:0 895:0 896:0 897:0 898:0 899:0 
2.829825320541344 3.365909342020093 1.08192838169925 0:0.0062385406 1:0.0039796084 2:0.011908492 3:0 4:0.070457086 5:0.0016149411 6:0.0092866942 7:0.00283961 8:0.0062385406 9:0.0021087937 10:0.039277144 11:0.051953968 12:0 13:0.14525816 14:0.014582402 15:0.017921405 16:0.011549332 17:0.00019520822 18:0.11020875 19:0.15118809 20:0.084880941 21:0 22:0.022574807 23:0.010151784 24:0.036465473 25:0.028620696 26:0.053725943 27:0.36576062 28:0.61375016 29:0.61375016 30:0 31:0.04785062 32:0.017943226 33:0.049555205 34:0.048050903 35:0.14201891 36:0.025470724 37:0.0866521 38:0.090426415 39:0.0021467726 40:0.021116683 41:0.0024161453 42:0.0029066948 43:0.0026903637 44:0.010624371 45:0.23914069 46:0.27335694 47:0.18619607 48:0.012636215 49:0.058120921 50:0.017664947 51:0.014656747 52:0.014237062 53:0.18924782 54:0.18300004 55:0.34070334 56:0.34070334 57:0.0073283575 58:0.0094926488 59:0.0026168425 60:0.0049412702 61:0.0066589206 62:0.034399446 63:0.34070334 64:0.34070334 65:0.34070334 66:0.14678335 67:0.27786961 68:0.040787149 69:0.025790481 70:0.020888332 71:0.23707791 72:0.30134791 73:0.15430565 74:0.061694875 75:0.030545015 76:0.23400831 77:0.080562428 78:0.05907014 79:0.026422873 80:0.2559616 81:0.076134138 82:0 83:0.00054442219 84:0.018748894 85:0.25373369 86:0.058670152 87:0.041838732 88:0.0082278093 89:0.060456123 90:0.30134791 91:0.25576147 92:0.1342281 93:0.30134791 94:0.30134791 95:0.17520478 96:0.11242837 97:0.060851309 98:0.30134791 99:0.098277248 100:0.0003341822 101:0.0060713519 102:0.18622687 103:0.30134791 104:0.12531018 105:0.080921374 106:0.046791404 107:0.11785823 108:0.043274194 109:0.14307131 110:0.20663309 111:0.0034643554 112:0.033687942 113:0.0027721729 114:0.008042763 115:0.0060001882 116:0.01563799 117:0.16985804 118:0.29957688 119:0.29957688 120:0.00086608867 121:0.15276927 122:0.0092553832 123:0.0042152461 124:0.0031741413 125:0.070367731 126:0.10115466 127:0.1876383 128:0.29957688 129:0.033470854 130:0.29957688 131:0.014611424 132:0.080136329 133:0.030161235 134:0.089932039 135:0.29957688 136:0.29957688 137:0.29957688 138:0.0089603886 139:0.29957688 140:0.016610783 141:0.051031828 142:0.018452132 143:0.29957688 144:0.19392519 145:0.25335523 146:0.25335523 147:0.012124479 148:0.095359683 149:0.0053408877 150:0.00057558954 151:0.0010394171 152:0.07123553 153:0.25335523 154:0.21389692 155:0.25335523 156:0.15850082 157:0.25335523 158:0.018587412 159:0.011590206 160:0.0026991789 161:0.10258639 162:0.25335523 163:0.25335523 164:0.18079112 165:0.008763914 166:0.14245151 167:0.0084283426 168:0.0085002324 169:0.011664604 170:0.25335523 171:0.25335523 172:0.18865441 173:0.22248107 174:0.10092703 175:0.25335523 176:0.013755537 177:0.073028982 178:0.058498722 179:0.25335523 180:0.17579544 181:0.047472116 182:0.068154588 183:0.23005915 184:0.25085559 185:0.082559392 186:0.079316162 187:0.059700888 188:0.13809499 189:0.14729586 190:0.00047760174 191:0.024785191 192:0.11372107 193:0.25085559 194:0.056572065 195:0.12966447 196:0.11398195 197:0.16203469 198:0.25085559 199:0.17734295 200:0.22020285 201:0.1311868 202:0.25085559 203:0.046636749 204:0.11720535 205:0.080999337 206:0.222579 207:0.25085559 208:0.24956165 209:0.25085559 210:0.14133608 211:0.25085559 212:0.035170354 213:0.15960349 214:0.11456338 215:0.2115711 216:0.29024565 217:0.049499348 218:0.12291158 219:0.036037106 220:0.34026283 221:0.0292536 222:0.19268546 223:0.073518492 224:0.29826283 225:0.34026283 226:0.1371724 227:0.12934792 228:0.0090841344 229:0.25038287 230:0.011331975 231:0.12794998 232:0.048927467 233:0.34026283 234:0.15543327 235:0.0017198292 236:0.001980149 237:0.010853816 238:0.10244959 239:0.018115846 240:0.049556002 241:0.022316806 242:0.14842124 243:0.34026283 244:0.026956167 245:0.0090974104 246:0.0022066538 247:0.052783784 248:0.0065851212 249:0.032980077 250:0.014877868 251:0.34026283 252:0.2746399 253:0.26879486 254:0.10543853 255:0.0022585914 256:0.082624994 257:0.0068235067 258:0.02605387 259:0.035557441 260:0.2746399 261:0.2746399 262:0.2746399 263:0.24432279 264:0.04380583 265:0.2746399 266:0.021462498 267:0.2746399 268:0.20536315 269:0.2746399 270:0.1980852 271:0.066632487 272:0.023865001 273:0.0020043016 274:0.053719874 275:0.0038159054 276:0.0076505793 277:0.0093791494 278:0.18002599 279:0.18458331 280:0.093656145 281:0.086712763 282:0.019682381 283:0.23969972 284:0.013895059 285:0.15939587 286:0.078677557 287:0.23049171 288:0.26065299 289:0.26065299 290:0.26065299 291:0.098708495 292:0.26065299 293:0.013803113 294:0.21673462 295:0.11143161 296:0.26065299 297:0.26065299 298:0.26065299 299:0.26065299 300:0.10995752 301:0.26065299 302:0.0090638781 303:0.033143669 304:0.017097546 305:0.17135887 306:0.19467865 307:0.077073947 308:0.15420538 309:0.048484381 310:0.26065299 311:0.0065934299 312:0.1196089 313:0.048472952 314:0.23829134 315:0.075752564 316:0.022295872 317:0.062355075 318:0.032127898 319:0.21709363 320:0.00043138725 321:0 322:0 323:0.063283041 324:0 325:0 326:0 327:0 328:0 329:0 330:0 331:0 332:0 333:0 334:0 335:0 336:0 337:0 338:0 339:0 340:0 341:0 342:0 343:0 344:0 345:0 346:0 347:0 348:0 349:0 350:0 351:0 352:0 353:0 354:0 355:0 356:0 357:0 358:0 359:0 360:0 361:0 362:0 363:0 364:0 365:0 366:0 367:0 368:0 369:0 370:0 371:0 372:0 373:0 374:0 375:0 376:0 377:0 378:0 379:0 380:0 381:0 382:0 383:0 384:0 385:0 386:0 387:0 388:0 389:0 390:0 391:0 392:0 393:0 394:0 395:0 396:0 397:0 398:0 399:0 400:0 401:0 402:0 403:0 404:0 405:0 406:0 407:0 408:0 409:0 410:0 411:0 412:0 413:0 414:0 415:0 416:0 417:0 418:0 419:0 420:0 421:0 422:0 423:0 424:0 425:0 426:0 427:0 428:0 429:0 430:0 431:0 432:0 433:0 434:0 435:0 436:0 437:0 438:0 439:0 440:0 441:0 442:0 443:0 444:0 445:0 446:0 447:0 448:0 449:0 450:0 451:0 452:0 453:0 454:0 455:0 456:0 457:0 458:0 459:0 460:0 461:0 462:0 463:0 464:0 465:0 466:0 467:0 468:0 469:0 470:0 471:0 472:0 473:0 474:0 475:0 476:0 477:0 478:0 479:0 480:0 481:0 482:0 483:0 484:0 485:0 486:0 487:0 488:0 489:0 490:0 491:0 492:0 493:0 494:0 495:0 496:0 497:0 498:0 499:0 500:0 501:0 502:0 503:0 504:0 505:0 506:0 507:0 508:0 509:0 510:0 511:0 512:0 513:0 514:0 515:0 516:0 517:0 518:0 519:0 520:0 521:0 522:0 523:0 524:0 525:0 526:0 527:0 528:0 529:0 530:0 531:0 532:0 533:0 534:0 535:0 536:0 537:0 538:0 539:0 540:0 541:0 542:0 543:0 544:0 545:0 546:0 547:0 548:0 549:0 550:0 551:0 552:0 553:0 554:0 555:0 556:0 557:0 558:0 559:0 560:0 561:0 562:0 563:0 564:0 565:0 566:0 567:0 568:0 569:0 570:0 571:0 572:0 573:0 574:0 575:0 576:0 577:0 578:0 579:0 580:0 581:0 582:0 583:0 584:0 585:0 586:0 587:0 588:0 589:0 590:0 591:0 592:0 593:0 594:0 595:0 596:0 597:0 598:0 599:0 600:0 601:0 602:0 603:0 604:0 605:0 606:0 607:0 608:0 609:0 610:0 611:0 612:0 613:0 614:0 615:0 616:0 617:0 618:0 619:0 620:0 621:0 622:0 623:0 624:0 625:0 626:0 627:0 628:0 629:0 630:0 631:0 632:0 633:0 634:0 635:0 636:0 637:0 638:0 639:0 640:0 641:0 642:0 643:0 644:0 645:0 646:0 647:0 648:0 649:0 650:0 651:0 652:0 653:0 654:0 655:0 656:0 657:0 658:0 659:0 660:0 661:0 662:0 663:0 664:0 665:0 666:0 667:0 668:0 669:0 670:0 671:0 672:0 673:0 674:0 675:0 676:0 677:0 678:0 679:0 680:0 681:0 682:0 683:0 684:0 685:0 686:0 687:0 688:0 689:0 690:0 691:0 692:0 693:0 694:0 695:0 696:0 697:0 698:0 699:0 700:0 701:0 702:0 703:0 704:0 705:0 706:0 707:0 708:0 709:0 710:0 711:0 712:0 713:0 714:0 715:0 716:0 717:0 718:0 719:0 720:0 721:0 722:0 723:0 724:0 725:0 726:0 727:0 728:0 729:0 730:0 731:0 732:0 733:0 734:0 735:0 736:0 737:0 738:0 739:0 740:0 741:0 742:0 743:0 744:0 745:0 746:0 747:0 748:0 749:0 750:0 751:0 752:0 753:0 754:0 755:0 756:0 757:0 758:0 759:0 760:0 761:0 762:0 763:0 764:0 765:0 766:0 767:0 768:0 769:0 770:0 771:0 772:0 773:0 774:0 775:0 776:0 777:0 778:0 779:0 780:0 781:0 782:0 783:0 784:0 785:0 786:0 787:0 788:0 789:0 790:0 791:0 792:0 793:0 794:0 795:0 796:0 797:0 798:0 799:0 800:0 801:0 802:0 803:0 804:0 805:0 806:0 807:0 808:0 809:0 810:0 811:0 812:0 813:0 814:0 815:0 816:0 817:0 818:0 819:0 820:0 821:0 822:0 823:0 824:0 825:0 826:0 827:0 828:0 829:0 830:0 831:0 832:0 833:0 834:0 835:0 836:0 837:0 838:0 839:0 840:0 841:0 842:0 843:0 844:0 845:0 846:0 847:0 848:0 849:0 850:0 851:0 852:0 853:0 854:0 855:0 856:0 857:0 858:0 859:0 860:0 861:0 862:0 863:0 864:0 865:0 866:0 867:0 868:0 869:0 870:0 871:0 872:0 873:0 874:0 875:0 876:0 877:0 878:0 879:0 880:0 881:0 882:0 883:0 884:0 885:0 886:0 887:0 888:0 889:0 890:0 891:0 892:0 893:0 894:0 895:0 896:0 897:0 898:0 899:0 
10.59346547345796 3.08600901994621 0.08459308004422926 0:0 1:0 2:0 3:0 4:0.043931998 5:0 6:0 7:0 8:0 9:0.040174872 10:0.030784743 11:0.0055705612 12:0 13:0.086545043 14:0 15:0 16:0 17:0.0065338211 18:0.066708557 19:0.041187957 20:0.10277968 21:0.004873883 22:0.050084226 23:0.0022064829 24:0.0010787108 25:0 26:0.016859902 27:0.35855961 28:0.64081264 29:0.64081264 30:0.0032492552 31:0.088791609 32:0.014328131 33:0.0070047867 34:0 35:0.063392721 36:0.021643659 37:0.060336344 38:0.049877893 39:0 40:0.0082784882 41:0 42:0.00029261425 43:9.7786542e-05 44:0.012840194 45:0.13983083 46:0.19635268 47:0.26093888 48:0.0073036249 49:0.05582926 50:0.011355613 51:0.0011704566 52:0.06724111 53:0.13164651 54:0.17448777 55:0.34218213 56:0.34218213 57:0.00022705708 58:0.0166953 59:0.001366317 60:0.00074112334 61:2.444663e-05 62:0.063581929 63:0.34218213 64:0.34218213 65:0.34218213 66:0.052978992 67:0.34218213 68:0.029864458 69:0.019136481 70:0.10684599 71:0.29260847 72:0.19536299 73:0.09925051 74:0.18774158 75:0.027036985 76:0.21575184 77:0.062742054 78:0.00054131041 79:0.15331194 80:0.19637081 81:0.035700455 82:0.00040663767 83:0.0016058373 84:0.021370314 85:0.17643905 86:0.046845537 87:0.00090353057 88:0.038584709 89:0.043226935 90:0.26688781 91:0.24733785 92:0.35299745 93:0.17757176 94:0.3644959 95:0.13112828 96:0.076250635 97:0.24076168 98:0.27556792 99:0.087943591 100:0.0010058203 101:0.0047543962 102:0.1139726 103:0.3644959 104:0.10284541 105:0.05177227 106:0.061265066 107:0.11164412 108:0.065351367 109:0.1236127 110:0.1555638 111:0.0030572454 112:0.0098645613 113:0.0022973295 114:0.00061672443 115:6.6507098e-05 116:0.0046856855 117:0.12457617 118:0.31736878 119:0.31736878 120:0.049350407 121:0.054861587 122:0.012920614 123:0.0029582758 124:0 125:0.0095435567 126:0.15181454 127:0.31736878 128:0.31736878 129:0.0086176367 130:0.29537061 131:0.010221374 132:0.037985474 133:0.0081685325 134:0.036843479 135:0.31736878 136:0.31736878 137:0.31736878 138:0.094715819 139:0.19149116 140:0.032813381 141:0.012871205 142:0.0026688355 143:0.25773066 144:0.13252646 145:0.26123095 146:0.26123095 147:0.0450508 148:0.044886023 149:0.014832451 150:0.0055167619 151:0 152:0.05219711 153:0.19721307 154:0.26123095 155:0.26123095 156:0.035205543 157:0.26123095 158:0.029533496 159:0.029931657 160:0.011210565 161:0.15032233 162:0.26123095 163:0.24446945 164:0.26123095 165:0.078631982 166:0.072891347 167:0.030780602 168:0.011454058 169:7.3211799e-05 170:0.24746402 171:0.26123095 172:0.17093618 173:0.23493846 174:0.0233521 175:0.26123095 176:0.05348824 177:0.065231599 178:0.010606723 179:0.26123095 180:0.16685861 181:0.053676963 182:0.083936512 183:0.065353058 184:0.26644439 185:0.038602188 186:0.13742524 187:0.035460848 188:0.15904774 189:0.18221733 190:0.0016829207 191:0.018497866 192:0.060287789 193:0.26644439 194:0.031131972 195:0.16663238 196:0.048207331 197:0.16816387 198:0.26644439 199:0.15655872 200:0.21038523 201:0.037043784 202:0.26644439 203:0.033366699 204:0.14174117 205:0.029008979 206:0.26434565 207:0.26644439 208:0.20093989 209:0.26644439 210:0.1173909 211:0.26644439 212:0.025260992 213:0.18377832 214:0.062251087 215:0.24573338 216:0.26713091 217:0.19961445 218:0.27621016 219:0.0045997929 220:0.27621016 221:0.009880513 222:0.15705343 223:0.03317152 224:0.20340781 225:0.27621016 226:0.27621016 227:0.27621016 228:0.024810281 229:0.0967426 230:0.011681196 231:0.039648931 232:0.0093479166 233:0.27621016 234:0.25321582 235:0.05822584 236:0.05888588 237:0 238:0.14720085 239:0.0031214475 240:0.10449412 241:0.02215321 242:0.22636242 243:0.27621016 244:0.13183996 245:0.15220664 246:0 247:0.013134401 248:0.00032382918 249:0.026018266 250:0.0055839336 251:0.27609357 252:0.29377231 253:0.18061671 254:0.13433151 255:0.02816247 256:0.030791691 257:0.039971855 258:0.02682893 259:0.00029643366 260:0.29377231 261:0.29377231 262:0.19921096 263:0.18657909 264:0.0071804109 265:0.2504105 266:0.1330854 267:0.29377231 268:0.06315013 269:0.29377231 270:0.27199656 271:0.056213625 272:0.039954454 273:0.00057979504 274:0.0035284017 275:0.019841079 276:0.017576519 277:0.00035187416 278:0.20978214 279:0.27623075 280:0.058792215 281:0.076979198 282:0.0045614741 283:0.092976063 284:0.078982227 285:0.19928966 286:0.04247044 287:0.29377231 288:0.26135585 289:0.26135585 290:0.26135585 291:0.017306488 292:0.26135585 293:0.055860076 294:0.21115948 295:0.056435432 296:0.26135585 297:0.26135585 298:0.26135585 299:0.26135585 300:0.068651713 301:0.26135585 302:0.0094824051 303:0.033781871 304:0.015837036 305:0.25901341 306:0.2017937 307:0.070942499 308:0.1684864 309:0.0027523777 310:0.2253933 311:0.030895341 312:0.13573244 313:0.035293974 314:0.2356324 315:0.055973295 316:0.024580767 317:0.063306279 318:0.0010764647 319:0.20946458 320:0.00021384817 321:0 322:0.00037080562 323:0.073698126 324:0 325:0 326:0 327:0 328:0 329:0 330:0 331:0 332:0 333:0 334:0 335:0 336:0 337:0 338:0 339:0 340:0 341:0 342:0 343:0 344:0 345:0 346:0 347:0 348:0 349:0 350:0 351:0 352:0 353:0 354:0 355:0 356:0 357:0 358:0 359:0 360:0 361:0 362:0 363:0 364:0 365:0 366:0 367:0 368:0 369:0 370:0 371:0 372:0 373:0 374:0 375:0 376:0 377:0 378:0 379:0 380:0 381:0 382:0 383:0 384:0 385:0 386:0 387:0 388:0 389:0 390:0 391:0 392:0 393:0 394:0 395:0 396:0 397:0 398:0 399:0 400:0 401:0 402:0 403:0 404:0 405:0 406:0 407:0 408:0 409:0 410:0 411:0 412:0 413:0 414:0 415:0 416:0 417:0 418:0 419:0 420:0 421:0 422:0 423:0 424:0 425:0 426:0 427:0 428:0 429:0 430:0 431:0 432:0 433:0 434:0 435:0 436:0 437:0 438:0 439:0 440:0 441:0 442:0 443:0 444:0 445:0 446:0 447:0 448:0 449:0 450:0 451:0 452:0 453:0 454:0 455:0 456:0 457:0 458:0 459:0 460:0 461:0 462:0 463:0 464:0 465:0 466:0 467:0 468:0 469:0 470:0 471:0 472:0 473:0 474:0 475:0 476:0 477:0 478:0 479:0 480:0 481:0 482:0 483:0 484:0 485:0 486:0 487:0 488:0 489:0 490:0 491:0 492:0 493:0 494:0 495:0 496:0 497:0 498:0 499:0 500:0 501:0 502:0 503:0 504:0 505:0 506:0 507:0 508:0 509:0 510:0 511:0 512:0 513:0 514:0 515:0 516:0 517:0 518:0 519:0 520:0 521:0 522:0 523:0 524:0 525:0 526:0 527:0 528:0 529:0 530:0 531:0 532:0 533:0 534:0 535:0 536:0 537:0 538:0 539:0 540:0 541:0 542:0 543:0 544:0 545:0 546:0 547:0 548:0 549:0 550:0 551:0 552:0 553:0 554:0 555:0 556:0 557:0 558:0 559:0 560:0 561:0 562:0 563:0 564:0 565:0 566:0 567:0 568:0 569:0 570:0 571:0 572:0 573:0 574:0 575:0 576:0 577:0 578:0 579:0 580:0 581:0 582:0 583:0 584:0 585:0 586:0 587:0 588:0 589:0 590:0 591:0 592:0 593:0 594:0 595:0 596:0 597:0 598:0 599:0 600:0 601:0 602:0 603:0 604:0 605:0 606:0 607:0 608:0 609:0 610:0 611:0 612:0 613:0 614:0 615:0 616:0 617:0 618:0 619:0 620:0 621:0 622:0 623:0 624:0 625:0 626:0 627:0 628:0 629:0 630:0 631:0 632:0 633:0 634:0 635:0 636:0 637:0 638:0 639:0 640:0 641:0 642:0 643:0 644:0 645:0 646:0 647:0 648:0 649:0 650:0 651:0 652:0 653:0 654:0 655:0 656:0 657:0 658:0 659:0 660:0 661:0 662:0 663:0 664:0 665:0 666:0 667:0 668:0 669:0 670:0 671:0 672:0 673:0 674:0 675:0 676:0 677:0 678:0 679:0 680:0 681:0 682:0 683:0 684:0 685:0 686:0 687:0 688:0 689:0 690:0 691:0 692:0 693:0 694:0 695:0 696:0 697:0 698:0 699:0 700:0 701:0 702:0 703:0 704:0 705:0 706:0 707:0 708:0 709:0 710:0 711:0 712:0 713:0 714:0 715:0 716:0 717:0 718:0 719:0 720:0 721:0 722:0 723:0 724:0 725:0 726:0 727:0 728:0 729:0 730:0 731:0 732:0 733:0 734:0 735:0 736:0 737:0 738:0 739:0 740:0 741:0 742:0 743:0 744:0 745:0 746:0 747:0 748:0 749:0 750:0 751:0 752:0 753:0 754:0 755:0 756:0 757:0 758:0 759:0 760:0 761:0 762:0 763:0 764:0 765:0 766:0 767:0 768:0 769:0 770:0 771:0 772:0 773:0 774:0 775:0 776:0 777:0 778:0 779:0 780:0 781:0 782:0 783:0 784:0 785:0 786:0 787:0 788:0 789:0 790:0 791:0 792:0 793:0 794:0 795:0 796:0 797:0 798:0 799:0 800:0 801:0 802:0 803:0 804:0 805:0 806:0 807:0 808:0 809:0 810:0 811:0 812:0 813:0 814:0 815:0 816:0 817:0 818:0 819:0 820:0 821:0 822:0 823:0 824:0 825:0 826:0 827:0 828:0 829:0 830:0 831:0 832:0 833:0 834:0 835:0 836:0 837:0 838:0 839:0 840:0 841:0 842:0 843:0 844:0 845:0 846:0 847:0 848:0 849:0 850:0 851:0 852:0 853:0 854:0 855:0 856:0 857:0 858:0 859:0 860:0 861:0 862:0 863:0 864:0 865:0 866:0 867:0 868:0 869:0 870:0 871:0 872:0 873:0 874:0 875:0 876:0 877:0 878:0 879:0 880:0 881:0 882:0 883:0 884:0 885:0 886:0 887:0 888:0 889:0 890:0 891:0 892:0 893:0 894:0 895:0 896:0 897:0 898:0 899:0 
8.306489328362451 24.74298767593904 17.55753704469711 0:0.019404624 1:0.0079825185 2:0.002068772 3:0.0068833986 4:0.047493726 5:0.010157137 6:0.010673991 7:0.010857164 8:0.019573141 9:0.042084921 10:0.092329077 11:0.1064957 12:0.0079039261 13:0.064197652 14:0.0097802551 15:0.01282958 16:0.010959391 17:0.051607192 18:0.13164546 19:0.18044162 20:0.33817467 21:0.0040610582 22:0.094720952 23:0.052316565 24:0.020347293 25:0.032346319 26:0.15527545 27:0.43616325 28:0.43616325 29:0.43616325 30:0.017673738 31:0.20455217 32:0.017029634 33:0.012926884 34:0.015870072 35:0.38495013 36:0.054982591 37:0.10841717 38:0.12886481 39:0.0026570044 40:0.013271448 41:0.00040221459 42:0.00086886459 43:0.0058350815 44:0.066378653 45:0.29894781 46:0.11517476 47:0.11320741 48:0.0026940699 49:0.061445329 50:0.0010881597 51:0.042647567 52:0.030639417 53:0.24345903 54:0.30260149 55:0.30260149 56:0.30260149 57:0.0075502074 58:0.068419829 59:0.00021943809 60:0.00098678994 61:0.0067462092 62:0.20401484 63:0.30260149 64:0.29143688 65:0.30260149 66:0.016112255 67:0.30260149 68:0.017559193 69:0.072246939 70:0.040003441 71:0.30260149 72:0.35445926 73:0.032623887 74:0.024767391 75:0.0080338493 76:0.25588861 77:0.0042715883 78:0.12415512 79:0.06569133 80:0.23536232 81:0.043210555 82:0.010822786 83:0.017454362 84:0.012435069 85:0.15849982 86:0.0031568932 87:0.031038778 88:0.014324942 89:0.022352315 90:0.40303522 91:0.07171797 92:0.095024385 93:0.023761399 94:0.40303522 95:0.064615987 96:0.24353704 97:0.10909327 98:0.3057462 99:0.096673153 100:0.011965389 101:0.023059621 102:0.038429849 103:0.40303522 104:0.036346938 105:0.097051486 106:0.03249469 107:0.067176975 108:0.098183915 109:0.10093205 110:0.21293858 111:0.015876781 112:0.23942108 113:0.023074409 114:0.043889824 115:0.0090945615 116:0.103949 117:0.27022094 118:0.29163358 119:0.29163358 120:0.014511981 121:0.26715457 122:0.005440264 123:0.027823417 124:0.002048735 125:0.21734551 126:0.1244757 127:0.040982191 128:0.093805782 129:0.048151389 130:0.29163358 131:0.014183505 132:0.16046286 133:0.011349969 134:0.29163358 135:0.29163358 136:0.066099949 137:0.11775253 138:0.021036901 139:0.24204224 140:0.0029153049 141:0.10773899 142:0.12164127 143:0.29163358 144:0.27226746 145:0.23946793 146:0.27226746 147:0.010711307 148:0.15019557 149:0 150:0.00027177265 151:0.0019692953 152:0.20175985 153:0.27226746 154:0.14846013 155:0.27226746 156:0.019296709 157:0.27226746 158:0.013277713 159:0.031096591 160:0.014618264 161:0.21874215 162:0.27226746 163:0.04390119 164:0.05319858 165:0.0057100314 166:0.092817411 167:0.00015801891 168:0.019968387 169:0.17063895 170:0.27226746 171:0.27226746 172:0.043477327 173:0.13895275 174:0.015953958 175:0.17630258 176:0.021195183 177:0.1607465 178:0.1265721 179:0.27226746 180:0.18171878 181:0.027510121 182:0.058379605 183:0.010240351 184:0.28997728 185:0.03175636 186:0.13544518 187:0.050179493 188:0.16088487 189:0.1831187 190:0.0014801212 191:0.0059154816 192:0.015862931 193:0.28997728 194:0.023817189 195:0.1530375 196:0.068692014 197:0.16370913 198:0.28997728 199:0.040821921 200:0.21538405 201:0.019178741 202:0.24031396 203:0.025714779 204:0.18614858 205:0.061022025 206:0.28997728 207:0.28997728 208:0.078543417 209:0.22198869 210:0.013123105 211:0.28997728 212:0.028490502 213:0.15852244 214:0.085708894 215:0.28997728 216:0.19140919 217:0.0070691109 218:0.03467001 219:0.081190236 220:0.25574097 221:0.015212122 222:0.19773151 223:0.020422218 224:0.46812555 225:0.46812555 226:0.0058505484 227:0.011948142 228:0.020593626 229:0.08085455 230:0.0030127035 231:0.14319381 232:0.3405107 233:0.46812555 234:0.018747106 235:0.0049263299 236:0.0090602459 237:0.029745534 238:0.14041346 239:0.0095018633 240:0.0080383839 241:0.005582686 242:0.01307866 243:0.090410069 244:0.0072006295 245:0.0071525807 246:0.0077350903 247:0.072118253 248:0.0031019012 249:0.02236015 250:0.031598113 251:0.090595379 252:0.33503702 253:0.0013215096 254:0.002915266 255:0.003785623 256:0.024032447 257:0.0014597988 258:0.084621906 259:0.32959536 260:0.33503702 261:0.33503702 262:0.015263669 263:0.2282818 264:0.043713924 265:0.09457431 266:0.076560989 267:0.33503702 268:0.30425555 269:0.33503702 270:0.061095022 271:0.0013973757 272:0.0030551548 273:0.0045304452 274:0.05664951 275:0.00097319897 276:0.027353454 277:0.013640173 278:0.071373679 279:0.1393736 280:0.0069708433 281:0.058495816 282:0.026245972 283:0.15211987 284:0.023926636 285:0.14998084 286:0.061353013 287:0.26610687 288:0.30617213 289:0.070765205 290:0.30617213 291:0.058400705 292:0.10059877 293:0.067097045 294:0.30192438 295:0.083021715 296:0.30617213 297:0.30617213 298:0.134234 299:0.30617213 300:0.056301329 301:0.30617213 302:0.037634529 303:0.034172617 304:0.022757139 305:0.30617213 306:0.18675444 307:0.018347928 308:0.12376497 309:0.025471982 310:0.12400642 311:0.027439984 312:0.074513033 313:0.035946116 314:0.21036527 315:0.09156552 316:0.013520394 317:0.060380038 318:0.059243578 319:0.22668453 320:0.014800974 321:0.0010459684 322:0 323:0.098140486 324:0 325:0 326:0 327:0 328:0 329:0 330:0 331:0 332:0 333:0 334:0 335:0 336:0 337:0 338:0 339:0 340:0 341:0 342:0 343:0 344:0 345:0 346:0 347:0 348:0 349:0 350:0 351:0 352:0 353:0 354:0 355:0 356:0 357:0 358:0 359:0 360:0 361:0 362:0 363:0 364:0 365:0 366:0 367:0 368:0 369:0 370:0 371:0 372:0 373:0 374:0 375:0 376:0 377:0 378:0 379:0 380:0 381:0 382:0 383:0 384:0 385:0 386:0 387:0 388:0 389:0 390:0 391:0 392:0 393:0 394:0 395:0 396:0 397:0 398:0 399:0 400:0 401:0 402:0 403:0 404:0 405:0 406:0 407:0 408:0 409:0 410:0 411:0 412:0 413:0 414:0 415:0 416:0 417:0 418:0 419:0 420:0 421:0 422:0 423:0 424:0 425:0 426:0 427:0 428:0 429:0 430:0 431:0 432:0 433:0 434:0 435:0 436:0 437:0 438:0 439:0 440:0 441:0 442:0 443:0 444:0 445:0 446:0 447:0 448:0 449:0 450:0 451:0 452:0 453:0 454:0 455:0 456:0 457:0 458:0 459:0 460:0 461:0 462:0 463:0 464:0 465:0 466:0 467:0 468:0 469:0 470:0 471:0 472:0 473:0 474:0 475:0 476:0 477:0 478:0 479:0 480:0 481:0 482:0 483:0 484:0 485:0 486:0 487:0 488:0 489:0 490:0 491:0 492:0 493:0 494:0 495:0 496:0 497:0 498:0 499:0 500:0 501:0 502:0 503:0 504:0 505:0 506:0 507:0 508:0 509:0 510:0 511:0 512:0 513:0 514:0 515:0 516:0 517:0 518:0 519:0 520:0 521:0 522:0 523:0 524:0 525:0 526:0 527:0 528:0 529:0 530:0 531:0 532:0 533:0 534:0 535:0 536:0 537:0 538:0 539:0 540:0 541:0 542:0 543:0 544:0 545:0 546:0 547:0 548:0 549:0 550:0 551:0 552:0 553:0 554:0 555:0 556:0 557:0 558:0 559:0 560:0 561:0 562:0 563:0 564:0 565:0 566:0 567:0 568:0 569:0 570:0 571:0 572:0 573:0 574:0 575:0 576:0 577:0 578:0 579:0 580:0 581:0 582:0 583:0 584:0 585:0 586:0 587:0 588:0 589:0 590:0 591:0 592:0 593:0 594:0 595:0 596:0 597:0 598:0 599:0 600:0 601:0 602:0 603:0 604:0 605:0 606:0 607:0 608:0 609:0 610:0 611:0 612:0 613:0 614:0 615:0 616:0 617:0 618:0 619:0 620:0 621:0 622:0 623:0 624:0 625:0 626:0 627:0 628:0 629:0 630:0 631:0 632:0 633:0 634:0 635:0 636:0 637:0 638:0 639:0 640:0 641:0 642:0 643:0 644:0 645:0 646:0 647:0 648:0 649:0 650:0 651:0 652:0 653:0 654:0 655:0 656:0 657:0 658:0 659:0 660:0 661:0 662:0 663:0 664:0 665:0 666:0 667:0 668:0 669:0 670:0 671:0 672:0 673:0 674:0 675:0 676:0 677:0 678:0 679:0 680:0 681:0 682:0 683:0 684:0 685:0 686:0 687:0 688:0 689:0 690:0 691:0 692:0 693:0 694:0 695:0 696:0 697:0 698:0 699:0 700:0 701:0 702:0 703:0 704:0 705:0 706:0 707:0 708:0 709:0 710:0 711:0 712:0 713:0 714:0 715:0 716:0 717:0 718:0 719:0 720:0 721:0 722:0 723:0 724:0 725:0 726:0 727:0 728:0 729:0 730:0 731:0 732:0 733:0 734:0 735:0 736:0 737:0 738:0 739:0 740:0 741:0 742:0 743:0 744:0 745:0 746:0 747:0 748:0 749:0 750:0 751:0 752:0 753:0 754:0 755:0 756:0 757:0 758:0 759:0 760:0 761:0 762:0 763:0 764:0 765:0 766:0 767:0 768:0 769:0 770:0 771:0 772:0 773:0 774:0 775:0 776:0 777:0 778:0 779:0 780:0 781:0 782:0 783:0 784:0 785:0 786:0 787:0 788:0 789:0 790:0 791:0 792:0 793:0 794:0 795:0 796:0 797:0 798:0 799:0 800:0 801:0 802:0 803:0 804:0 805:0 806:0 807:0 808:0 809:0 810:0 811:0 812:0 813:0 814:0 815:0 816:0 817:0 818:0 819:0 820:0 821:0 822:0 823:0 824:0 825:0 826:0 827:0 828:0 829:0 830:0 831:0 832:0 833:0 834:0 835:0 836:0 837:0 838:0 839:0 840:0 841:0 842:0 843:0 844:0 845:0 846:0 847:0 848:0 849:0 850:0 851:0 852:0 853:0 854:0 855:0 856:0 857:0 858:0 859:0 860:0 861:0 862:0 863:0 864:0 865:0 866:0 867:0 868:0 869:0 870:0 871:0 872:0 873:0 874:0 875:0 876:0 877:0 878:0 879:0 880:0 881:0 882:0 883:0 884:0 885:0 886:0 887:0 888:0 889:0 890:0 891:0 892:0 893:0 894:0 895:0 896:0 897:0 898:0 899:0 
0 2.862617687120689 4.948985522331981 0:0.011716457 1:0.011274112 2:0.0084320242 3:0.0018053433 4:0.059469227 5:0.0021813333 6:0.00523142 7:0.0034628832 8:0.014010487 9:0.067626484 10:0.016933186 11:0.12336213 12:0.016154734 13:0.12021565 14:0.0069512357 15:0.00086863636 16:0.000290283 17:0.043325707 18:0.14138608 19:0.18595131 20:0.37927967 21:0.048409417 22:0.029314686 23:0.042646285 24:0.038355626 25:0.033350322 26:0.19154815 27:0.41026732 28:0.41026732 29:0.41026732 30:0.038170088 31:0.18913063 32:0.031874832 33:0.015180158 34:0.024517627 35:0.41026732 36:0.079855248 37:0.039688524 38:0.15309434 39:0.011183777 40:0.061845504 41:0.003620123 42:0 43:0 44:0.060207792 45:0.22405665 46:0.06236368 47:0.19983259 48:0.0073285 49:0.1376228 50:0.0083009796 51:0.043195147 52:0.02335377 53:0.25963208 54:0.26623756 55:0.30002043 56:0.30002043 57:0.010411439 58:0.07040295 59:0.028264286 60:0.012837984 61:0.00087544532 62:0.22072907 63:0.30002043 64:0.30002043 65:0.30002043 66:0.02518107 67:0.30002043 68:0.1101779 69:0.073473237 70:0.035030659 71:0.30002043 72:0.25479105 73:0.022421407 74:0.079871751 75:0.0085515315 76:0.33559176 77:0.030018903 78:0.12487179 79:0.067512847 80:0.28403938 81:0.030221481 82:0.0010138946 83:0.012286852 84:0.015739549 85:0.23124705 86:0.022370428 87:0.032322139 88:0.01687821 89:0.01828843 90:0.32255653 91:0.073564827 92:0.1793457 93:0.060896344 94:0.38269982 95:0.22084378 96:0.1880917 97:0.10126927 98:0.31716385 99:0.037746321 100:0.011500684 101:0.031578925 102:0.057325147 103:0.38269982 104:0.10243615 105:0.04900587 106:0.026364854 107:0.017965037 108:0.089759164 109:0.10332464 110:0.27737001 111:0.11809429 112:0.07220497 113:0.037076235 114:0.044928074 115:0.025018256 116:0.1259781 117:0.23754409 118:0.27737001 119:0.27737001 120:0.029634926 121:0.22027291 122:0.027607035 123:0.016541723 124:0.01824064 125:0.27737001 126:0.085766234 127:0.043409884 128:0.19420147 129:0.14068006 130:0.12952699 131:0.074909389 132:0.20186265 133:0.27737001 134:0.14538556 135:0.27737001 136:0.043108519 137:0.15517229 138:0.030313637 139:0.16380392 140:0.031630039 141:0.10522167 142:0.27737001 143:0.27737001 144:0.21631317 145:0.2537798 146:0.27441317 147:0.0028084612 148:0.14572248 149:0.036000483 150:0.0069492753 151:0.00047388347 152:0.23444329 153:0.2344946 154:0.1695186 155:0.27441317 156:0.021633808 157:0.27441317 158:0.1217663 159:0.02539878 160:0.011769854 161:0.21966399 162:0.27441317 163:0.024040598 164:0.064468332 165:0.0051678233 166:0.10103841 167:0.015167101 168:0.021030769 169:0.031123726 170:0.27441317 171:0.27441317 172:0.040980097 173:0.14029279 174:0.020028237 175:0.27441317 176:0.042779479 177:0.12537538 178:0.045964863 179:0.27441317 180:0.10919318 181:0.027456423 182:0.079939239 183:0.034429759 184:0.28607669 185:0.18284419 186:0.084632605 187:0.072443686 188:0.11598003 189:0.098451428 190:0.0061341128 191:0.013210554 192:0.027825598 193:0.27686885 194:0.095976681 195:0.07951156 196:0.084579803 197:0.11421388 198:0.28607669 199:0.084795058 200:0.15087849 201:0.02169393 202:0.28607669 203:0.09245389 204:0.18589935 205:0.1303277 206:0.28607669 207:0.28607669 208:0.16639559 209:0.15574761 210:0.020212438 211:0.28607669 212:0.071674369 213:0.20054778 214:0.18281449 215:0.28607669 216:0.18176529 217:0.0069937916 218:0.026727606 219:0.062945366 220:0.10414985 221:0.067841753 222:0.25206277 223:0.41298124 224:0.2854982 225:0.41298124 226:0.0049169362 227:0.0066516828 228:0.012602334 229:0.024349825 230:0.017411638 231:0.15565673 232:0.41298124 233:0.41298124 234:0.048090562 235:0.0044630044 236:0.0018987419 237:0.0059382627 238:0.087347493 239:0.0020523153 240:0.00028782486 241:9.6186006e-05 242:0.050767593 243:0.18988694 244:0.0031737296 245:0.0011436023 246:0.0025365967 247:0.03958312 248:0.00051307876 249:0.0012811318 250:0.0040658624 251:0.19951637 252:0.32741597 253:0.0025793274 254:0.0022529531 255:0.01874283 256:0.048208468 257:0.0071698544 258:0.071942776 259:0.059231378 260:0.32741597 261:0.32741597 262:0.040137526 263:0.16842175 264:0.058469579 265:0.32741597 266:0.02433819 267:0.32741597 268:0.14621563 269:0.32741597 270:0.086481586 271:0.00082425482 272:0.0020945347 273:0.011895316 274:0.076213457 275:0.010754783 276:0.023260497 277:0.0092031844 278:0.098966673 279:0.16235611 280:0.013494609 281:0.098211415 282:0.03513211 283:0.32741597 284:0.028995883 285:0.21932353 286:0.062130459 287:0.25560802 288:0.26868123 289:0.14391595 290:0.26868123 291:0.028379934 292:0.26868123 293:0.022810176 294:0.25809035 295:0.094271548 296:0.26868123 297:0.26868123 298:0.20960042 299:0.25644892 300:0.027852312 301:0.26868123 302:0.031337019 303:0.080249906 304:0.064607412 305:0.26868123 306:0.15325229 307:0.032521416 308:0.1635986 309:0.015767466 310:0.26868123 311:0.018895 312:0.12106925 313:0.032887679 314:0.21055654 315:0.066594407 316:0.018374138 317:0.069014825 318:0.015115521 319:0.26868123 320:0.021349758 321:0.0024666844 322:0.00048322446 323:0.076088004 324:0 325:0 326:0 327:0 328:0 329:0 330:0 331:0 332:0 333:0 334:0 335:0 336:0 337:0 338:0 339:0 340:0 341:0 342:0 343:0 344:0 345:0 346:0 347:0 348:0 349:0 350:0 351:0 352:0 353:0 354:0 355:0 356:0 357:0 358:0 359:0 360:0 361:0 362:0 363:0 364:0 365:0 366:0 367:0 368:0 369:0 370:0 371:0 372:0 373:0 374:0 375:0 376:0 377:0 378:0 379:0 380:0 381:0 382:0 383:0 384:0 385:0 386:0 387:0 388:0 389:0 390:0 391:0 392:0 393:0 394:0 395:0 396:0 397:0 398:0 399:0 400:0 401:0 402:0 403:0 404:0 405:0 406:0 407:0 408:0 409:0 410:0 411:0 412:0 413:0 414:0 415:0 416:0 417:0 418:0 419:0 420:0 421:0 422:0 423:0 424:0 425:0 426:0 427:0 428:0 429:0 430:0 431:0 432:0 433:0 434:0 435:0 436:0 437:0 438:0 439:0 440:0 441:0 442:0 443:0 444:0 445:0 446:0 447:0 448:0 449:0 450:0 451:0 452:0 453:0 454:0 455:0 456:0 457:0 458:0 459:0 460:0 461:0 462:0 463:0 464:0 465:0 466:0 467:0 468:0 469:0 470:0 471:0 472:0 473:0 474:0 475:0 476:0 477:0 478:0 479:0 480:0 481:0 482:0 483:0 484:0 485:0 486:0 487:0 488:0 489:0 490:0 491:0 492:0 493:0 494:0 495:0 496:0 497:0 498:0 499:0 500:0 501:0 502:0 503:0 504:0 505:0 506:0 507:0 508:0 509:0 510:0 511:0 512:0 513:0 514:0 515:0 516:0 517:0 518:0 519:0 520:0 521:0 522:0 523:0 524:0 525:0 526:0 527:0 528:0 529:0 530:0 531:0 532:0 533:0 534:0 535:0 536:0 537:0 538:0 539:0 540:0 541:0 542:0 543:0 544:0 545:0 546:0 547:0 548:0 549:0 550:0 551:0 552:0 553:0 554:0 555:0 556:0 557:0 558:0 559:0 560:0 561:0 562:0 563:0 564:0 565:0 566:0 567:0 568:0 569:0 570:0 571:0 572:0 573:0 574:0 575:0 576:0 577:0 578:0 579:0 580:0 581:0 582:0 583:0 584:0 585:0 586:0 587:0 588:0 589:0 590:0 591:0 592:0 593:0 594:0 595:0 596:0 597:0 598:0 599:0 600:0 601:0 602:0 603:0 604:0 605:0 606:0 607:0 608:0 609:0 610:0 611:0 612:0 613:0 614:0 615:0 616:0 617:0 618:0 619:0 620:0 621:0 622:0 623:0 624:0 625:0 626:0 627:0 628:0 629:0 630:0 631:0 632:0 633:0 634:0 635:0 636:0 637:0 638:0 639:0 640:0 641:0 642:0 643:0 644:0 645:0 646:0 647:0 648:0 649:0 650:0 651:0 652:0 653:0 654:0 655:0 656:0 657:0 658:0 659:0 660:0 661:0 662:0 663:0 664:0 665:0 666:0 667:0 668:0 669:0 670:0 671:0 672:0 673:0 674:0 675:0 676:0 677:0 678:0 679:0 680:0 681:0 682:0 683:0 684:0 685:0 686:0 687:0 688:0 689:0 690:0 691:0 692:0 693:0 694:0 695:0 696:0 697:0 698:0 699:0 700:0 701:0 702:0 703:0 704:0 705:0 706:0 707:0 708:0 709:0 710:0 711:0 712:0 713:0 714:0 715:0 716:0 717:0 718:0 719:0 720:0 721:0 722:0 723:0 724:0 725:0 726:0 727:0 728:0 729:0 730:0 731:0 732:0 733:0 734:0 735:0 736:0 737:0 738:0 739:0 740:0 741:0 742:0 743:0 744:0 745:0 746:0 747:0 748:0 749:0 750:0 751:0 752:0 753:0 754:0 755:0 756:0 757:0 758:0 759:0 760:0 761:0 762:0 763:0 764:0 765:0 766:0 767:0 768:0 769:0 770:0 771:0 772:0 773:0 774:0 775:0 776:0 777:0 778:0 779:0 780:0 781:0 782:0 783:0 784:0 785:0 786:0 787:0 788:0 789:0 790:0 791:0 792:0 793:0 794:0 795:0 796:0 797:0 798:0 799:0 800:0 801:0 802:0 803:0 804:0 805:0 806:0 807:0 808:0 809:0 810:0 811:0 812:0 813:0 814:0 815:0 816:0 817:0 818:0 819:0 820:0 821:0 822:0 823:0 824:0 825:0 826:0 827:0 828:0 829:0 830:0 831:0 832:0 833:0 834:0 835:0 836:0 837:0 838:0 839:0 840:0 841:0 842:0 843:0 844:0 845:0 846:0 847:0 848:0 849:0 850:0 851:0 852:0 853:0 854:0 855:0 856:0 857:0 858:0 859:0 860:0 861:0 862:0 863:0 864:0 865:0 866:0 867:0 868:0 869:0 870:0 871:0 872:0 873:0 874:0 875:0 876:0 877:0 878:0 879:0 880:0 881:0 882:0 883:0 884:0 885:0 886:0 887:0 888:0 889:0 890:0 891:0 892:0 893:0 894:0 895:0 896:0 897:0 898:0 899:0 
2.82165806706388 13.57160115288121 9.245741794329041 0:0.021223243 1:0 2:0 3:0 4:0.077298567 5:0.039998565 6:0.17095439 7:0.11358117 8:0.043076992 9:0.039795678 10:0.019424936 11:0.30076909 12:0.0066248127 13:0.091053039 14:0.056496676 15:0.16655104 16:0.11129177 17:0.0066875205 18:0.10457445 19:0.072685294 20:0.38767877 21:0.095147297 22:0.0028437008 23:0.075182468 24:0.34861836 25:0.15270209 26:0.060277473 27:0.1616749 28:0.35758772 29:0.43194276 30:0.15480854 31:0.065462336 32:0.066421688 33:0.2803295 34:0.13367707 35:0.012091069 36:0.1158824 37:0.039619073 38:0.3012206 39:0.013803954 40:0.023617312 41:0.0052809757 42:0.015961766 43:0.025248492 44:0.034304652 45:0.3012206 46:0.093575455 47:0.28197905 48:0.028430382 49:0.15533668 50:0.015760785 51:0.057619512 52:0.0075966083 53:0.15590046 54:0.17384523 55:0.3012206 56:0.3012206 57:0.031927079 58:0.04399037 59:0.012502979 60:0.066960156 61:0.051498529 62:0.090679973 63:0.3012206 64:0.24547558 65:0.3012206 66:0.053049125 67:0.3012206 68:0.063327953 69:0.1772352 70:0.079392955 71:0.22222038 72:0.29274717 73:0.062168498 74:0.087930836 75:0.086919859 76:0.40538582 77:0.039966062 78:0.16806519 79:0.010377524 80:0.16193424 81:0.020152744 82:0.0034290119 83:0.013654239 84:0.053611144 85:0.28491783 86:0.019594252 87:0.059015557 88:0.01458009 89:0.021299521 90:0.19979097 91:0.048727483 92:0.10790049 93:0.19710749 94:0.40538582 95:0.091459878 96:0.25837034 97:0.076916173 98:0.15251637 99:0.093917303 100:0.0072763925 101:0.010799482 102:0.10672932 103:0.40538582 104:0.045218069 105:0.16502073 106:0.044979103 107:0.062915727 108:0.042469043 109:0.042745054 110:0.29562983 111:0.17894623 112:0.1136134 113:0.10581183 114:0.090685993 115:0.029103173 116:0.016769025 117:0.14117707 118:0.2273228 119:0.29562983 120:0.16590936 121:0.17783405 122:0.10551141 123:0.063462839 124:0.027259456 125:0.022570098 126:0.044836134 127:0.0069067394 128:0.21670681 129:0.14007923 130:0.29562983 131:0.25545263 132:0.095416822 133:0.19717625 134:0.17558645 135:0.24231958 136:0.05082215 137:0.12980548 138:0.098324411 139:0.24443348 140:0.18750487 141:0.053045653 142:0.18146372 143:0.29562983 144:0.22469187 145:0.24513699 146:0.28424481 147:0.035478063 148:0.11929207 149:0.03753683 150:0.038354911 151:0.026248535 152:0.11245985 153:0.26472086 154:0.14650182 155:0.28389478 156:0.022142442 157:0.28424481 158:0.063876726 159:0.10285203 160:0.054915752 161:0.15526654 162:0.28424481 163:0.045099668 164:0.049684368 165:0.019995393 166:0.10559651 167:0.064549699 168:0.037397705 169:0.02899269 170:0.28424481 171:0.28424481 172:0.033654116 173:0.13916261 174:0.0092923772 175:0.28424481 176:0.071735263 177:0.15914641 178:0.037192468 179:0.28424481 180:0.17720881 181:0.0072002839 182:0.062141646 183:0.051522154 184:0.27566001 185:0.042063847 186:0.13241589 187:0.077580474 188:0.10692783 189:0.22971675 190:0.012153494 191:0.0014143022 192:0.030480815 193:0.26572716 194:0.12081513 195:0.12931414 196:0.11632852 197:0.13334246 198:0.27566001 199:0.069433071 200:0.1341283 201:0.026966242 202:0.27566001 203:0.040591918 204:0.14454998 205:0.072148293 206:0.27566001 207:0.27566001 208:0.15703054 209:0.087561227 210:0.19539878 211:0.27566001 212:0.22961989 213:0.091040879 214:0.14388464 215:0.27566001 216:0.10383064 217:0.0016789977 218:0.019235596 219:0.019301346 220:0.31833187 221:0.22673951 222:0.18414477 223:0.30836967 224:0.31833187 225:0.31833187 226:0.0020544268 227:0.0046343864 228:0.0067892675 229:0.11320738 230:0.15521559 231:0.15345243 232:0.23208757 233:0.31833187 234:0.026124712 235:0.0011193317 236:0.00017451227 237:0.0041511767 238:0.31833187 239:0.10259239 240:0.076199211 241:0.039482996 242:0.056901928 243:0.082246318 244:0 245:0 246:0 247:0.31833187 248:0.14300035 249:0.09718895 250:0.013504462 251:0.15429607 252:0.31873959 253:0.0022890593 254:0 255:0.0018742802 256:0.074754752 257:0.05753668 258:0.10982789 259:0.043191887 260:0.31873959 261:0.31873959 262:0.090394288 263:0.11664122 264:0.028191835 265:0.31873959 266:0.10419745 267:0.31873959 268:0.11742455 269:0.31873959 270:0.057541091 271:0 272:0 273:0 274:0.148876 275:0.042431634 276:0.057589468 277:0.010153817 278:0.10020293 279:0.15283562 280:0.056581646 281:0.055318497 282:0.014342755 283:0.29228243 284:0.060115892 285:0.2696799 286:0.070495903 287:0.28265181 288:0.26531589 289:0.19286995 290:0.26531589 291:0.08549542 292:0.26531589 293:0.05423582 294:0.26531589 295:0.071599521 296:0.26531589 297:0.26531589 298:0.19773595 299:0.19464834 300:0.2408216 301:0.20771827 302:0.11423928 303:0.043872871 304:0.039902762 305:0.26531589 306:0.18296042 307:0.092720255 308:0.11949697 309:0.049152415 310:0.22729771 311:0.03999098 312:0.15000041 313:0.058955383 314:0.24930146 315:0.098931551 316:0.026563721 317:0.057684649 318:0.034759875 319:0.13895185 320:0.067259148 321:0.041550014 322:0.028745063 323:0.12552686 324:0 325:0 326:0 327:0 328:0 329:0 330:0 331:0 332:0 333:0 334:0 335:0 336:0 337:0 338:0 339:0 340:0 341:0 342:0 343:0 344:0 345:0 346:0 347:0 348:0 349:0 350:0 351:0 352:0 353:0 354:0 355:0 356:0 357:0 358:0 359:0 360:0 361:0 362:0 363:0 364:0 365:0 366:0 367:0 368:0 369:0 370:0 371:0 372:0 373:0 374:0 375:0 376:0 377:0 378:0 379:0 380:0 381:0 382:0 383:0 384:0 385:0 386:0 387:0 388:0 389:0 390:0 391:0 392:0 393:0 394:0 395:0 396:0 397:0 398:0 399:0 400:0 401:0 402:0 403:0 404:0 405:0 406:0 407:0 408:0 409:0 410:0 411:0 412:0 413:0 414:0 415:0 416:0 417:0 418:0 419:0 420:0 421:0 422:0 423:0 424:0 425:0 426:0 427:0 428:0 429:0 430:0 431:0 432:0 433:0 434:0 435:0 436:0 437:0 438:0 439:0 440:0 441:0 442:0 443:0 444:0 445:0 446:0 447:0 448:0 449:0 450:0 451:0 452:0 453:0 454:0 455:0 456:0 457:0 458:0 459:0 460:0 461:0 462:0 463:0 464:0 465:0 466:0 467:0 468:0 469:0 470:0 471:0 472:0 473:0 474:0 475:0 476:0 477:0 478:0 479:0 480:0 481:0 482:0 483:0 484:0 485:0 486:0 487:0 488:0 489:0 490:0 491:0 492:0 493:0 494:0 495:0 496:0 497:0 498:0 499:0 500:0 501:0 502:0 503:0 504:0 505:0 506:0 507:0 508:0 509:0 510:0 511:0 512:0 513:0 514:0 515:0 516:0 517:0 518:0 519:0 520:0 521:0 522:0 523:0 524:0 525:0 526:0 527:0 528:0 529:0 530:0 531:0 532:0 533:0 534:0 535:0 536:0 537:0 538:0 539:0 540:0 541:0 542:0 543:0 544:0 545:0 546:0 547:0 548:0 549:0 550:0 551:0 552:0 553:0 554:0 555:0 556:0 557:0 558:0 559:0 560:0 561:0 562:0 563:0 564:0 565:0 566:0 567:0 568:0 569:0 570:0 571:0 572:0 573:0 574:0 575:0 576:0 577:0 578:0 579:0 580:0 581:0 582:0 583:0 584:0 585:0 586:0 587:0 588:0 589:0 590:0 591:0 592:0 593:0 594:0 595:0 596:0 597:0 598:0 599:0 600:0 601:0 602:0 603:0 604:0 605:0 606:0 607:0 608:0 609:0 610:0 611:0 612:0 613:0 614:0 615:0 616:0 617:0 618:0 619:0 620:0 621:0 622:0 623:0 624:0 625:0 626:0 627:0 628:0 629:0 630:0 631:0 632:0 633:0 634:0 635:0 636:0 637:0 638:0 639:0 640:0 641:0 642:0 643:0 644:0 645:0 646:0 647:0 648:0 649:0 650:0 651:0 652:0 653:0 654:0 655:0 656:0 657:0 658:0 659:0 660:0 661:0 662:0 663:0 664:0 665:0 666:0 667:0 668:0 669:0 670:0 671:0 672:0 673:0 674:0 675:0 676:0 677:0 678:0 679:0 680:0 681:0 682:0 683:0 684:0 685:0 686:0 687:0 688:0 689:0 690:0 691:0 692:0 693:0 694:0 695:0 696:0 697:0 698:0 699:0 700:0 701:0 702:0 703:0 704:0 705:0 706:0 707:0 708:0 709:0 710:0 711:0 712:0 713:0 714:0 715:0 716:0 717:0 718:0 719:0 720:0 721:0 722:0 723:0 724:0 725:0 726:0 727:0 728:0 729:0 730:0 731:0 732:0 733:0 734:0 735:0 736:0 737:0 738:0 739:0 740:0 741:0 742:0 743:0 744:0 745:0 746:0 747:0 748:0 749:0 750:0 751:0 752:0 753:0 754:0 755:0 756:0 757:0 758:0 759:0 760:0 761:0 762:0 763:0 764:0 765:0 766:0 767:0 768:0 769:0 770:0 771:0 772:0 773:0 774:0 775:0 776:0 777:0 778:0 779:0 780:0 781:0 782:0 783:0 784:0 785:0 786:0 787:0 788:0 789:0 790:0 791:0 792:0 793:0 794:0 795:0 796:0 797:0 798:0 799:0 800:0 801:0 802:0 803:0 804:0 805:0 806:0 807:0 808:0 809:0 810:0 811:0 812:0 813:0 814:0 815:0 816:0 817:0 818:0 819:0 820:0 821:0 822:0 823:0 824:0 825:0 826:0 827:0 828:0 829:0 830:0 831:0 832:0 833:0 834:0 835:0 836:0 837:0 838:0 839:0 840:0 841:0 842:0 843:0 844:0 845:0 846:0 847:0 848:0 849:0 850:0 851:0 852:0 853:0 854:0 855:0 856:0 857:0 858:0 859:0 860:0 861:0 862:0 863:0 864:0 865:0 866:0 867:0 868:0 869:0 870:0 871:0 872:0 873:0 874:0 875:0 876:0 877:0 878:0 879:0 880:0 881:0 882:0 883:0 884:0 885:0 886:0 887:0 888:0 889:0 890:0 891:0 892:0 893:0 894:0 895:0 896:0 897:0 898:0 899:0 
0 19.27252277810769 24.63548319534242 0:0.0031567295 1:0.0001719846 2:0.00051464356 3:0 4:0.04872423 5:0.0064642779 6:0.02102272 7:0.021643233 8:0.0061983191 9:0.076773942 10:0.12115122 11:0.12354434 12:0 13:0.097275183 14:0.023682257 15:0.044750188 16:0.011361987 17:0.0092259031 18:0.083036318 19:0.22346415 20:0.4263179 21:0.0012609339 22:0.016904484 23:0.021421561 24:0.034257576 25:0.034758791 26:0.055594284 27:0.4144502 28:0.49836206 29:0.49836206 30:0 31:0.038389429 32:0.041836735 33:0.050563063 34:0.020073324 35:0.15522057 36:0.108684 37:0.10032533 38:0.18444206 39:0.00088438822 40:0.028594492 41:0.0088870665 42:0.0057239169 43:0.00041644869 44:0.057071295 45:0.26419511 46:0.063655041 47:0.15453468 48:0.0044015334 49:0.046611298 50:0.046752989 51:0.10064043 52:0.066713929 53:0.20863597 54:0.28011712 55:0.28011712 56:0.28011712 57:0.012159549 58:0.040891595 59:0.0097068828 60:0.049449477 61:0.028303687 62:0.21225189 63:0.28011712 64:0.1917868 65:0.28011712 66:0.029405106 67:0.28011712 68:0.20104261 69:0.28011712 70:0.14456116 71:0.28011712 72:0.24246335 73:0.0081321299 74:0.027959848 75:0.018311959 76:0.12750801 77:0.15187629 78:0.26026201 79:0.10872377 80:0.19323783 81:0.010427705 82:0 83:0 84:0.011329395 85:0.12095075 86:0.059602465 87:0.071746036 88:0.008536824 89:0.0041331882 90:0.25666544 91:0.01251356 92:0.050605476 93:0.080672286 94:0.33847761 95:0.33847761 96:0.33847761 97:0.20395154 98:0.21294232 99:0.11637293 100:0 101:0 102:0.05582327 103:0.33847761 104:0.22159925 105:0.25276199 106:0.033501666 107:0.075364746 108:0.075794227 109:0.21473962 110:0.29546916 111:0.0083020758 112:0.11464209 113:0.0063715964 114:0.0035531796 115:0.0041912496 116:0.025552828 117:0.18450555 118:0.29546916 119:0.29546916 120:0.0061230939 121:0.13276477 122:0.0090096481 123:0.0025256288 124:0.0048650028 125:0.068323992 126:0.19807611 127:0.18168582 128:0.19411694 129:0.025488425 130:0.29546916 131:0.024940278 132:0.051949095 133:0.034589209 134:0.076421812 135:0.29546916 136:0.29546916 137:0.29211622 138:0.012742366 139:0.23835395 140:0.010288945 141:0.012939222 142:0.011913558 143:0.29546916 144:0.20439231 145:0.27001286 146:0.27001286 147:0.029400073 148:0.11163604 149:0.0060325204 150:0.049926322 151:0.031712424 152:0.10942881 153:0.12036823 154:0.17758724 155:0.19639003 156:0.059172794 157:0.27001286 158:0.089959882 159:0.1437013 160:0.065855175 161:0.092905208 162:0.27001286 163:0.27001286 164:0.20904648 165:0.022547871 166:0.11855547 167:0.0073036309 168:0.029915158 169:0.020333562 170:0.27001286 171:0.27001286 172:0.19159764 173:0.12120161 174:0.055846687 175:0.27001286 176:0.028845197 177:0.1426466 178:0.073449299 179:0.27001286 180:0.12928289 181:0.013076792 182:0.015303248 183:0.032205511 184:0.27465108 185:0.16189453 186:0.22358787 187:0.067068949 188:0.11787177 189:0.20674227 190:0.00046118902 191:0.00052895944 192:0.014204918 193:0.27465108 194:0.062520415 195:0.18524031 196:0.07066334 197:0.15769245 198:0.27465108 199:0.085196756 200:0.16022938 201:0.037953421 202:0.27465108 203:0.028571105 204:0.16821708 205:0.073743567 206:0.27465108 207:0.27465108 208:0.11872011 209:0.2125328 210:0.017141664 211:0.27465108 212:0.01916912 213:0.1848997 214:0.083513841 215:0.27465108 216:0.34282741 217:0.10967918 218:0.026722629 219:0.014697279 220:0.34282741 221:0.032867577 222:0.1623992 223:0.10482273 224:0.30065989 225:0.34282741 226:0.34282741 227:0.0083174165 228:0.0055268314 229:0.10799595 230:0.0069871307 231:0.043038934 232:0.029556638 233:0.34282741 234:0.23452328 235:0.02437805 236:0 237:0 238:0.052037667 239:0.0015528655 240:0.043711431 241:0.02843307 242:0.16994362 243:0.33374357 244:0.11658673 245:0 246:0 247:0.024108758 248:0.00057643454 249:0.014586569 250:0.0096382694 251:0.19187523 252:0.30972633 253:0.247308 254:0.0022234763 255:0.0015143009 256:0.066402808 257:0.016443176 258:0.053193774 259:0.044582095 260:0.30972633 261:0.30972633 262:0.11884049 263:0.16040659 264:0.029974025 265:0.30972633 266:0.085523106 267:0.30972633 268:0.21949331 269:0.30972633 270:0.15037332 271:0.049903847 272:0 273:0 274:0.058865517 275:0.012862237 276:0.017711168 277:0.019632189 278:0.074312367 279:0.18563391 280:0.039227266 281:0.082620248 282:0.0077176034 283:0.25818729 284:0.05750306 285:0.19077602 286:0.10483471 287:0.24335593 288:0.27206978 289:0.16988958 290:0.27206978 291:0.052380908 292:0.27206978 293:0.044817924 294:0.22300205 295:0.10704317 296:0.27206978 297:0.27206978 298:0.16304673 299:0.27206978 300:0.025356909 301:0.27206978 302:0.041115046 303:0.053971898 304:0.015463319 305:0.27206978 306:0.15889426 307:0.067028068 308:0.1579309 309:0.018441565 310:0.26625124 311:0.032317474 312:0.11722229 313:0.055075727 314:0.23839845 315:0.050355844 316:0.023364061 317:0.059052631 318:0.0099792564 319:0.24218835 320:0.033646431 321:0.017970234 322:0.00068181107 323:0.10434916 324:0 325:0 326:0 327:0 328:0 329:0 330:0 331:0 332:0 333:0 334:0 335:0 336:0 337:0 338:0 339:0 340:0 341:0 342:0 343:0 344:0 345:0 346:0 347:0 348:0 349:0 350:0 351:0 352:0 353:0 354:0 355:0 356:0 357:0 358:0 359:0 360:0 361:0 362:0 363:0 364:0 365:0 366:0 367:0 368:0 369:0 370:0 371:0 372:0 373:0 374:0 375:0 376:0 377:0 378:0 379:0 380:0 381:0 382:0 383:0 384:0 385:0 386:0 387:0 388:0 389:0 390:0 391:0 392:0 393:0 394:0 395:0 396:0 397:0 398:0 399:0 400:0 401:0 402:0 403:0 404:0 405:0 406:0 407:0 408:0 409:0 410:0 411:0 412:0 413:0 414:0 415:0 416:0 417:0 418:0 419:0 420:0 421:0 422:0 423:0 424:0 425:0 426:0 427:0 428:0 429:0 430:0 431:0 432:0 433:0 434:0 435:0 436:0 437:0 438:0 439:0 440:0 441:0 442:0 443:0 444:0 445:0 446:0 447:0 448:0 449:0 450:0 451:0 452:0 453:0 454:0 455:0 456:0 457:0 458:0 459:0 460:0 461:0 462:0 463:0 464:0 465:0 466:0 467:0 468:0 469:0 470:0 471:0 472:0 473:0 474:0 475:0 476:0 477:0 478:0 479:0 480:0 481:0 482:0 483:0 484:0 485:0 486:0 487:0 488:0 489:0 490:0 491:0 492:0 493:0 494:0 495:0 496:0 497:0 498:0 499:0 500:0 501:0 502:0 503:0 504:0 505:0 506:0 507:0 508:0 509:0 510:0 511:0 512:0 513:0 514:0 515:0 516:0 517:0 518:0 519:0 520:0 521:0 522:0 523:0 524:0 525:0 526:0 527:0 528:0 529:0 530:0 531:0 532:0 533:0 534:0 535:0 536:0 537:0 538:0 539:0 540:0 541:0 542:0 543:0 544:0 545:0 546:0 547:0 548:0 549:0 550:0 551:0 552:0 553:0 554:0 555:0 556:0 557:0 558:0 559:0 560:0 561:0 562:0 563:0 564:0 565:0 566:0 567:0 568:0 569:0 570:0 571:0 572:0 573:0 574:0 575:0 576:0 577:0 578:0 579:0 580:0 581:0 582:0 583:0 584:0 585:0 586:0 587:0 588:0 589:0 590:0 591:0 592:0 593:0 594:0 595:0 596:0 597:0 598:0 599:0 600:0 601:0 602:0 603:0 604:0 605:0 606:0 607:0 608:0 609:0 610:0 611:0 612:0 613:0 614:0 615:0 616:0 617:0 618:0 619:0 620:0 621:0 622:0 623:0 624:0 625:0 626:0 627:0 628:0 629:0 630:0 631:0 632:0 633:0 634:0 635:0 636:0 637:0 638:0 639:0 640:0 641:0 642:0 643:0 644:0 645:0 646:0 647:0 648:0 649:0 650:0 651:0 652:0 653:0 654:0 655:0 656:0 657:0 658:0 659:0 660:0 661:0 662:0 663:0 664:0 665:0 666:0 667:0 668:0 669:0 670:0 671:0 672:0 673:0 674:0 675:0 676:0 677:0 678:0 679:0 680:0 681:0 682:0 683:0 684:0 685:0 686:0 687:0 688:0 689:0 690:0 691:0 692:0 693:0 694:0 695:0 696:0 697:0 698:0 699:0 700:0 701:0 702:0 703:0 704:0 705:0 706:0 707:0 708:0 709:0 710:0 711:0 712:0 713:0 714:0 715:0 716:0 717:0 718:0 719:0 720:0 721:0 722:0 723:0 724:0 725:0 726:0 727:0 728:0 729:0 730:0 731:0 732:0 733:0 734:0 735:0 736:0 737:0 738:0 739:0 740:0 741:0 742:0 743:0 744:0 745:0 746:0 747:0 748:0 749:0 750:0 751:0 752:0 753:0 754:0 755:0 756:0 757:0 758:0 759:0 760:0 761:0 762:0 763:0 764:0 765:0 766:0 767:0 768:0 769:0 770:0 771:0 772:0 773:0 774:0 775:0 776:0 777:0 778:0 779:0 780:0 781:0 782:0 783:0 784:0 785:0 786:0 787:0 788:0 789:0 790:0 791:0 792:0 793:0 794:0 795:0 796:0 797:0 798:0 799:0 800:0 801:0 802:0 803:0 804:0 805:0 806:0 807:0 808:0 809:0 810:0 811:0 812:0 813:0 814:0 815:0 816:0 817:0 818:0 819:0 820:0 821:0 822:0 823:0 824:0 825:0 826:0 827:0 828:0 829:0 830:0 831:0 832:0 833:0 834:0 835:0 836:0 837:0 838:0 839:0 840:0 841:0 842:0 843:0 844:0 845:0 846:0 847:0 848:0 849:0 850:0 851:0 852:0 853:0 854:0 855:0 856:0 857:0 858:0 859:0 860:0 861:0 862:0 863:0 864:0 865:0 866:0 867:0 868:0 869:0 870:0 871:0 872:0 873:0 874:0 875:0 876:0 877:0 878:0 879:0 880:0 881:0 882:0 883:0 884:0 885:0 886:0 887:0 888:0 889:0 890:0 891:0 892:0 893:0 894:0 895:0 896:0 897:0 898:0 899:0 
0.2781855470357547 11.39567836516063 6.997486263266533 0:0.067821503 1:0.00089912652 2:0.0026905297 3:0 4:0.030568032 5:0.010747157 6:0.002282369 7:0.040464733 8:0.15305355 9:0.023653051 10:0.0075862072 11:0.076795928 12:0.0019211054 13:0.029865587 14:0.016487274 15:0.025770076 16:0.089331962 17:0.14817022 18:0.14203399 19:0.11885267 20:0.10253998 21:0.0015158243 22:0.014977778 23:0.029366812 24:0.019855242 25:0.064878419 26:0.22667594 27:0.49635249 28:0.49635249 29:0.49635249 30:0.003892208 31:0.0028140782 32:0.05221032 33:0.067778446 34:0.14147925 35:0.24018969 36:0.020834258 37:0.038235035 38:0.16553099 39:0.0012967075 40:0.0095122308 41:0.0058211428 42:0.0075669545 43:0.0090743052 44:0.024815932 45:0.23318905 46:0.16160107 47:0.27755708 48:0.0023733978 49:0.036486283 50:0.025878018 51:0.0098086186 52:0.0023706576 53:0.25242734 54:0.11472976 55:0.30499947 56:0.3276425 57:0.0023368755 58:0.013119545 59:0.019028896 60:0.010551543 61:0.014897191 62:0.063482709 63:0.3276425 64:0.31690732 65:0.3276425 66:0.006018097 67:0.31275991 68:0.064859457 69:0.0065186424 70:0.012913799 71:0.3276425 72:0.26496172 73:0.19135278 74:0.0757645 75:0.0088948645 76:0.23495881 77:0.10098005 78:0.0038263092 79:0.001148148 80:0.33127517 81:0.073934279 82:0.042464197 83:0.0018754237 84:0.010702734 85:0.29997143 86:0.082181871 87:0.0013905152 88:0.0012622378 89:0.096596539 90:0.28663892 91:0.16250941 92:0.14455284 93:0.019386139 94:0.35097679 95:0.21270557 96:0.040267542 97:0.021425784 98:0.35097679 99:0.083675086 100:0.029915372 101:0.0016953716 102:0.02966775 103:0.35097679 104:0.16125868 105:0.069159359 106:0.019333988 107:0.092580751 108:0.027501205 109:0.15665022 110:0.27523184 111:0.0010007281 112:0.007561902 113:0.0070115915 114:0.0082086092 115:0.0036158771 116:0.018367732 117:0.25293306 118:0.30404732 119:0.30404732 120:0.0097821476 121:0.1284982 122:0.0056171841 123:0.010996893 124:0.007352958 125:0.0601881 126:0.035579581 127:0.30291513 128:0.30404732 129:0.0089517068 130:0.26950461 131:0.015658433 132:0.041332442 133:0.014851737 134:0.038602389 135:0.30404732 136:0.30404732 137:0.30404732 138:0.016067376 139:0.20895971 140:0.010079993 141:0.022707604 142:0.0098209884 143:0.20559998 144:0.22684991 145:0.26973221 146:0.26973221 147:0.0054478343 148:0.11855413 149:0.0071441345 150:0.010051154 151:0.0033957951 152:0.078460343 153:0.23150417 154:0.19499283 155:0.26973221 156:0.018025661 157:0.26973221 158:0.030027339 159:0.0061175567 160:0.0047026188 161:0.15961961 162:0.26973221 163:0.14284326 164:0.2117404 165:0.00783497 166:0.15620145 167:0.0060208878 168:0.021325706 169:0.0070777913 170:0.26973221 171:0.26973221 172:0.12360577 173:0.20433854 174:0.023291608 175:0.26973221 176:0.049274229 177:0.037175421 178:0.025192311 179:0.26973221 180:0.1310515 181:0.037368 182:0.07335531 183:0.024015926 184:0.31120551 185:0.08625371 186:0.10190322 187:0.049920939 188:0.12107437 189:0.14364031 190:0.0018472255 191:0.0014841255 192:0.025422331 193:0.31120551 194:0.087417752 195:0.21263595 196:0.10853004 197:0.10260522 198:0.21941464 199:0.097399153 200:0.18284506 201:0.034660012 202:0.31120551 203:0.067046531 204:0.098866843 205:0.059853923 206:0.23916775 207:0.25822023 208:0.16871046 209:0.23633325 210:0.063813046 211:0.31120551 212:0.086244613 213:0.20827848 214:0.13419917 215:0.24966718 216:0.25360402 217:0.13803594 218:0.26991057 219:0.010397678 220:0.26991057 221:0.020676192 222:0.13766199 223:0.058214013 224:0.2639358 225:0.26991057 226:0.26991057 227:0.26991057 228:0.0048709055 229:0.065590553 230:0.0098923789 231:0.042200785 232:0.020029301 233:0.26991057 234:0.26991057 235:0.026735844 236:0.013799554 237:0.0032102312 238:0.14623652 239:0.0046347803 240:0.093932427 241:0.039454095 242:0.26991057 243:0.26991057 244:0.15963103 245:0.16191334 246:0.00036001136 247:0.030415477 248:0.0043749828 249:0.02829426 250:0.011331781 251:0.26991057 252:0.30704936 253:0.13311413 254:0.15968697 255:0.0026205878 256:0.061694983 257:0.0083258739 258:0.041686442 259:0.031531028 260:0.30704936 261:0.30704936 262:0.11848491 263:0.075061783 264:0.010273505 265:0.16330932 266:0.21270166 267:0.14556897 268:0.13087124 269:0.30704936 270:0.28399661 271:0.084582523 272:0.097773232 273:5.1181632e-05 274:0.074419968 275:0.0070025022 276:0.025202665 277:0.019812703 278:0.23141158 279:0.28377333 280:0.13576156 281:0.034806754 282:0.0014042056 283:0.22988789 284:0.14219846 285:0.089154601 286:0.083487056 287:0.30704936 288:0.24152666 289:0.25010094 290:0.25923756 291:0.029828561 292:0.25923756 293:0.14704832 294:0.057271093 295:0.058680095 296:0.25923756 297:0.20663707 298:0.24297291 299:0.25923756 300:0.062210493 301:0.25923756 302:0.027649557 303:0.035473026 304:0.039121509 305:0.25923756 306:0.17439222 307:0.23458688 308:0.14478727 309:0.010936938 310:0.20721209 311:0.095570743 312:0.029724652 313:0.033783186 314:0.25923756 315:0.073225267 316:0.086311989 317:0.1198226 318:0.01700723 319:0.25923756 320:0.005325383 321:0.0043654935 322:0.008738623 323:0.11086942 324:0 325:0 326:0 327:0 328:0 329:0 330:0 331:0 332:0 333:0 334:0 335:0 336:0 337:0 338:0 339:0 340:0 341:0 342:0 343:0 344:0 345:0 346:0 347:0 348:0 349:0 350:0 351:0 352:0 353:0 354:0 355:0 356:0 357:0 358:0 359:0 360:0 361:0 362:0 363:0 364:0 365:0 366:0 367:0 368:0 369:0 370:0 371:0 372:0 373:0 374:0 375:0 376:0 377:0 378:0 379:0 380:0 381:0 382:0 383:0 384:0 385:0 386:0 387:0 388:0 389:0 390:0 391:0 392:0 393:0 394:0 395:0 396:0 397:0 398:0 399:0 400:0 401:0 402:0 403:0 404:0 405:0 406:0 407:0 408:0 409:0 410:0 411:0 412:0 413:0 414:0 415:0 416:0 417:0 418:0 419:0 420:0 421:0 422:0 423:0 424:0 425:0 426:0 427:0 428:0 429:0 430:0 431:0 432:0 433:0 434:0 435:0 436:0 437:0 438:0 439:0 440:0 441:0 442:0 443:0 444:0 445:0 446:0 447:0 448:0 449:0 450:0 451:0 452:0 453:0 454:0 455:0 456:0 457:0 458:0 459:0 460:0 461:0 462:0 463:0 464:0 465:0 466:0 467:0 468:0 469:0 470:0 471:0 472:0 473:0 474:0 475:0 476:0 477:0 478:0 479:0 480:0 481:0 482:0 483:0 484:0 485:0 486:0 487:0 488:0 489:0 490:0 491:0 492:0 493:0 494:0 495:0 496:0 497:0 498:0 499:0 500:0 501:0 502:0 503:0 504:0 505:0 506:0 507:0 508:0 509:0 510:0 511:0 512:0 513:0 514:0 515:0 516:0 517:0 518:0 519:0 520:0 521:0 522:0 523:0 524:0 525:0 526:0 527:0 528:0 529:0 530:0 531:0 532:0 533:0 534:0 535:0 536:0 537:0 538:0 539:0 540:0 541:0 542:0 543:0 544:0 545:0 546:0 547:0 548:0 549:0 550:0 551:0 552:0 553:0 554:0 555:0 556:0 557:0 558:0 559:0 560:0 561:0 562:0 563:0 564:0 565:0 566:0 567:0 568:0 569:0 570:0 571:0 572:0 573:0 574:0 575:0 576:0 577:0 578:0 579:0 580:0 581:0 582:0 583:0 584:0 585:0 586:0 587:0 588:0 589:0 590:0 591:0 592:0 593:0 594:0 595:0 596:0 597:0 598:0 599:0 600:0 601:0 602:0 603:0 604:0 605:0 606:0 607:0 608:0 609:0 610:0 611:0 612:0 613:0 614:0 615:0 616:0 617:0 618:0 619:0 620:0 621:0 622:0 623:0 624:0 625:0 626:0 627:0 628:0 629:0 630:0 631:0 632:0 633:0 634:0 635:0 636:0 637:0 638:0 639:0 640:0 641:0 642:0 643:0 644:0 645:0 646:0 647:0 648:0 649:0 650:0 651:0 652:0 653:0 654:0 655:0 656:0 657:0 658:0 659:0 660:0 661:0 662:0 663:0 664:0 665:0 666:0 667:0 668:0 669:0 670:0 671:0 672:0 673:0 674:0 675:0 676:0 677:0 678:0 679:0 680:0 681:0 682:0 683:0 684:0 685:0 686:0 687:0 688:0 689:0 690:0 691:0 692:0 693:0 694:0 695:0 696:0 697:0 698:0 699:0 700:0 701:0 702:0 703:0 704:0 705:0 706:0 707:0 708:0 709:0 710:0 711:0 712:0 713:0 714:0 715:0 716:0 717:0 718:0 719:0 720:0 721:0 722:0 723:0 724:0 725:0 726:0 727:0 728:0 729:0 730:0 731:0 732:0 733:0 734:0 735:0 736:0 737:0 738:0 739:0 740:0 741:0 742:0 743:0 744:0 745:0 746:0 747:0 748:0 749:0 750:0 751:0 752:0 753:0 754:0 755:0 756:0 757:0 758:0 759:0 760:0 761:0 762:0 763:0 764:0 765:0 766:0 767:0 768:0 769:0 770:0 771:0 772:0 773:0 774:0 775:0 776:0 777:0 778:0 779:0 780:0 781:0 782:0 783:0 784:0 785:0 786:0 787:0 788:0 789:0 790:0 791:0 792:0 793:0 794:0 795:0 796:0 797:0 798:0 799:0 800:0 801:0 802:0 803:0 804:0 805:0 806:0 807:0 808:0 809:0 810:0 811:0 812:0 813:0 814:0 815:0 816:0 817:0 818:0 819:0 820:0 821:0 822:0 823:0 824:0 825:0 826:0 827:0 828:0 829:0 830:0 831:0 832:0 833:0 834:0 835:0 836:0 837:0 838:0 839:0 840:0 841:0 842:0 843:0 844:0 845:0 846:0 847:0 848:0 849:0 850:0 851:0 852:0 853:0 854:0 855:0 856:0 857:0 858:0 859:0 860:0 861:0 862:0 863:0 864:0 865:0 866:0 867:0 868:0 869:0 870:0 871:0 872:0 873:0 874:0 875:0 876:0 877:0 878:0 879:0 880:0 881:0 882:0 883:0 884:0 885:0 886:0 887:0 888:0 889:0 890:0 891:0 892:0 893:0 894:0 895:0 896:0 897:0 898:0 899:0 
6.193270345221938 7.375002683724198 3.895096534749276 0:0.031469453 1:0 2:0 3:0 4:0.020140937 5:0.003098537 6:0.0095364507 7:0.06881322 8:0.08393386 9:0.013937544 10:0.054315783 11:0.23289348 12:0 13:0.022200864 14:0.019725364 15:0.042915661 16:0.082031801 17:0.047188997 18:0.052145649 19:0.058059406 20:0.22542468 21:0 22:0.029387629 23:0.014172114 24:0.021291019 25:0.073266648 26:0.092575237 27:0.026561033 28:0.63870466 29:0.63870466 30:0.0048311925 31:0.021922717 32:0.042297475 33:0.088644087 34:0.098941997 35:0.04886296 36:0.032653533 37:0.12426141 38:0.21109527 39:0 40:0.0087751718 41:0.0044003595 42:0.0086718909 43:0.0056082923 44:0.018333383 45:0.17897597 46:0.29189631 47:0.26883054 48:0.0069858409 49:0.12410516 50:0.013573301 51:0.049167581 52:0.04130654 53:0.18344443 54:0.059722479 55:0.33588237 56:0.33588237 57:0.0026506786 58:0.01938073 59:0.0073368354 60:0.017448161 61:0.01542666 62:0.053727966 63:0.23955479 64:0.33588237 65:0.33588237 66:0.010223978 67:0.33588237 68:0.07781826 69:0.044680718 70:0.035517402 71:0.23194495 72:0.1856626 73:0.18510768 74:0.092485234 75:0.017848698 76:0.35579833 77:0.078130141 78:0.11968283 79:0.099300504 80:0.21682489 81:0.021703005 82:0.0059476565 83:0.0089740744 84:0.014175792 85:0.24495655 86:0.07167124 87:0.031331964 88:0.024620932 89:0.021703005 90:0.18506594 91:0.17781003 92:0.13869439 93:0.017675079 94:0.35579833 95:0.35579833 96:0.11789947 97:0.066454835 98:0.16717167 99:0.1413541 100:0.05598747 101:0.0045204409 102:0.013993488 103:0.35579833 104:0.32023731 105:0.04831104 106:0.016413951 107:0.083750725 108:0.090335138 109:0.1382845 110:0.28522578 111:0.00043120096 112:0.035603493 113:0.003117892 114:0.0035564138 115:0.0033753202 116:0.017636551 117:0.071686953 118:0.31181014 119:0.31181014 120:0.010585668 121:0.14446755 122:0.01092133 123:0.0071267853 124:0.0069349483 125:0.035317246 126:0.21097784 127:0.20192346 128:0.31181014 129:0.046065759 130:0.31181014 131:0.0073694712 132:0.035099383 133:0.01011784 134:0.034461133 135:0.30155852 136:0.26936778 137:0.31181014 138:0.026697734 139:0.26162973 140:0.015352138 141:0.0084911706 142:0.012151603 143:0.22320785 144:0.092260316 145:0.25787529 146:0.29150444 147:0.0098158708 148:0.11899251 149:0.0053130109 150:0.0042841733 151:0.0068004518 152:0.062576093 153:0.11949693 154:0.20161532 155:0.29150444 156:0.014742834 157:0.29150444 158:0.052613162 159:0.020161264 160:0.0041325837 161:0.10497103 162:0.29150444 163:0.13672453 164:0.29150444 165:0.014135276 166:0.15283777 167:0.012987625 168:0.0059877834 169:0.0048452588 170:0.28472251 171:0.28031525 172:0.14521547 173:0.29150444 174:0.012202409 175:0.19441599 176:0.039824177 177:0.072652571 178:0.0037193904 179:0.2378435 180:0.12947206 181:0.11636623 182:0.12137988 183:0.0099177649 184:0.26918605 185:0.2092946 186:0.081495106 187:0.00015949451 188:0.096818231 189:0.24790019 190:0.14933975 191:0.013174784 192:0.02502197 193:0.26918605 194:0.26918605 195:0.054860748 196:0 197:0.14829212 198:0.14660859 199:0.21303964 200:0.26918605 201:0.0057785497 202:0.26918605 203:0.071986087 204:0.1007383 205:0.0036482164 206:0.13720998 207:0.18199255 208:0.26918605 209:0.26918605 210:0.083730221 211:0.26918605 212:0.17778732 213:0.04373394 214:0.0024914909 215:0.16842343 216:0.28657186 217:0.057698067 218:0.13726056 219:0.046699636 220:0.28657186 221:0.0075422684 222:0.15208784 223:0.043599155 224:0.25071418 225:0.28657186 226:0.1838697 227:0.28657186 228:0.015381187 229:0.10463147 230:0.0069050384 231:0.038970597 232:0.016281607 233:0.28657186 234:0.28657186 235:0.0099685527 236:0.035413641 237:0.004493848 238:0.15444751 239:0.0016615556 240:0.10085612 241:0.030230286 242:0.28657186 243:0.28657186 244:0.10348447 245:0.22498287 246:0.00016884312 247:0.022181068 248:0.0014778685 249:0.026680263 250:0.0075169145 251:0.28657186 252:0.30791387 253:0.13661715 254:0.18187448 255:0.0073734801 256:0.04703949 257:0.030352786 258:0.038755339 259:0.0038252103 260:0.30791387 261:0.30791387 262:0.10006002 263:0.093577571 264:0.0078882109 265:0.12465909 266:0.12494712 267:0.30791387 268:0.024294471 269:0.30791387 270:0.2379123 271:0.067744829 272:0.10434819 273:0 274:0.025680408 275:0.019916574 276:0.027155148 277:0 278:0.26192906 279:0.30791387 280:0.029069839 281:0.026885826 282:0 283:0.11356104 284:0.074514508 285:0.25164005 286:0.020162748 287:0.30791387 288:0.27076072 289:0.21447802 290:0.27076072 291:0.0057078861 292:0.27076072 293:0.074802093 294:0.23180845 295:0.018755563 296:0.27076072 297:0.099118158 298:0.27076072 299:0.27076072 300:0.044564418 301:0.27076072 302:0.066128977 303:0.017752975 304:0.0036774594 305:0.14749049 306:0.27076072 307:0.064254992 308:0.1352071 309:0.0027620939 310:0.1915807 311:0.035133108 312:0.150363 313:0.015287732 314:0.27076072 315:0.10568713 316:0.049974706 317:0.11897511 318:0.0041431412 319:0.27076072 320:0.026676578 321:0.0050963531 322:0.0007199797 323:0.091783755 324:0 325:0 326:0 327:0 328:0 329:0 330:0 331:0 332:0 333:0 334:0 335:0 336:0 337:0 338:0 339:0 340:0 341:0 342:0 343:0 344:0 345:0 346:0 347:0 348:0 349:0 350:0 351:0 352:0 353:0 354:0 355:0 356:0 357:0 358:0 359:0 360:0 361:0 362:0 363:0 364:0 365:0 366:0 367:0 368:0 369:0 370:0 371:0 372:0 373:0 374:0 375:0 376:0 377:0 378:0 379:0 380:0 381:0 382:0 383:0 384:0 385:0 386:0 387:0 388:0 389:0 390:0 391:0 392:0 393:0 394:0 395:0 396:0 397:0 398:0 399:0 400:0 401:0 402:0 403:0 404:0 405:0 406:0 407:0 408:0 409:0 410:0 411:0 412:0 413:0 414:0 415:0 416:0 417:0 418:0 419:0 420:0 421:0 422:0 423:0 424:0 425:0 426:0 427:0 428:0 429:0 430:0 431:0 432:0 433:0 434:0 435:0 436:0 437:0 438:0 439:0 440:0 441:0 442:0 443:0 444:0 445:0 446:0 447:0 448:0 449:0 450:0 451:0 452:0 453:0 454:0 455:0 456:0 457:0 458:0 459:0 460:0 461:0 462:0 463:0 464:0 465:0 466:0 467:0 468:0 469:0 470:0 471:0 472:0 473:0 474:0 475:0 476:0 477:0 478:0 479:0 480:0 481:0 482:0 483:0 484:0 485:0 486:0 487:0 488:0 489:0 490:0 491:0 492:0 493:0 494:0 495:0 496:0 497:0 498:0 499:0 500:0 501:0 502:0 503:0 504:0 505:0 506:0 507:0 508:0 509:0 510:0 511:0 512:0 513:0 514:0 515:0 516:0 517:0 518:0 519:0 520:0 521:0 522:0 523:0 524:0 525:0 526:0 527:0 528:0 529:0 530:0 531:0 532:0 533:0 534:0 535:0 536:0 537:0 538:0 539:0 540:0 541:0 542:0 543:0 544:0 545:0 546:0 547:0 548:0 549:0 550:0 551:0 552:0 553:0 554:0 555:0 556:0 557:0 558:0 559:0 560:0 561:0 562:0 563:0 564:0 565:0 566:0 567:0 568:0 569:0 570:0 571:0 572:0 573:0 574:0 575:0 576:0 577:0 578:0 579:0 580:0 581:0 582:0 583:0 584:0 585:0 586:0 587:0 588:0 589:0 590:0 591:0 592:0 593:0 594:0 595:0 596:0 597:0 598:0 599:0 600:0 601:0 602:0 603:0 604:0 605:0 606:0 607:0 608:0 609:0 610:0 611:0 612:0 613:0 614:0 615:0 616:0 617:0 618:0 619:0 620:0 621:0 622:0 623:0 624:0 625:0 626:0 627:0 628:0 629:0 630:0 631:0 632:0 633:0 634:0 635:0 636:0 637:0 638:0 639:0 640:0 641:0 642:0 643:0 644:0 645:0 646:0 647:0 648:0 649:0 650:0 651:0 652:0 653:0 654:0 655:0 656:0 657:0 658:0 659:0 660:0 661:0 662:0 663:0 664:0 665:0 666:0 667:0 668:0 669:0 670:0 671:0 672:0 673:0 674:0 675:0 676:0 677:0 678:0 679:0 680:0 681:0 682:0 683:0 684:0 685:0 686:0 687:0 688:0 689:0 690:0 691:0 692:0 693:0 694:0 695:0 696:0 697:0 698:0 699:0 700:0 701:0 702:0 703:0 704:0 705:0 706:0 707:0 708:0 709:0 710:0 711:0 712:0 713:0 714:0 715:0 716:0 717:0 718:0 719:0 720:0 721:0 722:0 723:0 724:0 725:0 726:0 727:0 728:0 729:0 730:0 731:0 732:0 733:0 734:0 735:0 736:0 737:0 738:0 739:0 740:0 741:0 742:0 743:0 744:0 745:0 746:0 747:0 748:0 749:0 750:0 751:0 752:0 753:0 754:0 755:0 756:0 757:0 758:0 759:0 760:0 761:0 762:0 763:0 764:0 765:0 766:0 767:0 768:0 769:0 770:0 771:0 772:0 773:0 774:0 775:0 776:0 777:0 778:0 779:0 780:0 781:0 782:0 783:0 784:0 785:0 786:0 787:0 788:0 789:0 790:0 791:0 792:0 793:0 794:0 795:0 796:0 797:0 798:0 799:0 800:0 801:0 802:0 803:0 804:0 805:0 806:0 807:0 808:0 809:0 810:0 811:0 812:0 813:0 814:0 815:0 816:0 817:0 818:0 819:0 820:0 821:0 822:0 823:0 824:0 825:0 826:0 827:0 828:0 829:0 830:0 831:0 832:0 833:0 834:0 835:0 836:0 837:0 838:0 839:0 840:0 841:0 842:0 843:0 844:0 845:0 846:0 847:0 848:0 849:0 850:0 851:0 852:0 853:0 854:0 855:0 856:0 857:0 858:0 859:0 860:0 861:0 862:0 863:0 864:0 865:0 866:0 867:0 868:0 869:0 870:0 871:0 872:0 873:0 874:0 875:0 876:0 877:0 878:0 879:0 880:0 881:0 882:0 883:0 884:0 885:0 886:0 887:0 888:0 889:0 890:0 891:0 892:0 893:0 894:0 895:0 896:0 897:0 898:0 899:0 
2.044613689217146 0 0 0:0.004851765 1:0 2:0 3:0 4:0.031013209 5:0.013468073 6:0.022972094 7:0.050171215 8:0.017507711 9:0.059004258 10:0.034990307 11:0.14576121 12:0 13:0.067715518 14:0.031541251 15:0.051252648 16:0.066822417 17:0.049623445 18:0.083106861 19:0.12797768 20:0.43782175 21:7.0798545e-05 22:0.011028898 23:0.014454852 24:0.030435279 25:0.057139065 26:0.035647288 27:0.38140896 28:0.46069342 29:0.46069342 30:0.036269531 31:0.013302957 32:0.027880436 33:0.056355193 34:0.07285849 35:0.3851288 36:0.037709385 37:0.13169008 38:0.21132971 39:0 40:0.024836544 41:0.0088696321 42:0.011141492 43:0.012492058 44:0.027956476 45:0.24975516 46:0.23149401 47:0.199036 48:0.0030218647 49:0.081016175 50:0.046997596 51:0.0084299343 52:0.063273564 53:0.13351214 54:0.19511285 55:0.30908069 56:0.30908069 57:0.020293619 58:0.019328846 59:0.0074973763 60:0.0096557215 61:0.01136748 62:0.21905927 63:0.30908069 64:0.30908069 65:0.30908069 66:0.019052221 67:0.30908069 68:0.087530002 69:0.013536316 70:0.045195654 71:0.27369663 72:0.3051607 73:0.09153159 74:0.040593129 75:0.019821197 76:0.35155645 77:0.14087175 78:0.029434146 79:0.18402851 80:0.16583307 81:0.0304692 82:0 83:0 84:0.013214131 85:0.25192574 86:0.065779559 87:0.028935675 88:0.077873111 89:0.048343785 90:0.28010234 91:0.092781268 92:0.12078239 93:0.082674712 94:0.40406567 95:0.21471347 96:0.07433755 97:0.15951872 98:0.21104543 99:0.099954076 100:0.0014873816 101:0 102:0.052415907 103:0.40406567 104:0.060911536 105:0.072089769 106:0.12650664 107:0.1196788 108:0.11848295 109:0.13177887 110:0.30327722 111:0.0010767921 112:0.13687819 113:0.010400537 114:0.0039060386 115:0.0029238025 116:0.053756338 117:0.15384567 118:0.293309 119:0.30327722 120:0.049632218 121:0.12383201 122:0.009043023 123:0.0071853506 124:0.0034730325 125:0.15646847 126:0.20320082 127:0.095434763 128:0.23982002 129:0.0015368509 130:0.30327722 131:0.054361027 132:0.07433524 133:0.035453625 134:0.19065821 135:0.30327722 136:0.17115425 137:0.30327722 138:0.034316622 139:0.23182908 140:0.012758288 141:0.03027506 142:0.022853909 143:0.30327722 144:0.21721414 145:0.26731989 146:0.26731989 147:0.057638854 148:0.063862197 149:0.0068514049 150:0.0020030085 151:0.00076003966 152:0.18103226 153:0.26692826 154:0.19625333 155:0.26731989 156:0.024349945 157:0.26731989 158:0.034208372 159:0.022925308 160:0.0085300962 161:0.1500292 162:0.26731989 163:0.24528116 164:0.15173094 165:0.038649932 166:0.067896821 167:0.012598345 168:0.0078017553 169:0.010344055 170:0.26731989 171:0.26731989 172:0.20277508 173:0.12902759 174:0.038931701 175:0.23141375 176:0.071280703 177:0.023439601 178:0.020181127 179:0.25802901 180:0.17953169 181:0.025535436 182:0.078676879 183:0.030566104 184:0.29091713 185:0.029937401 186:0.12374441 187:0.049116906 188:0.14520326 189:0.18576214 190:0.00091355975 191:0.00033089664 192:0.021743827 193:0.29091713 194:0.010369027 195:0.17584203 196:0.080007657 197:0.1801542 198:0.29091713 199:0.083919995 200:0.081313714 201:0.10327195 202:0.29091713 203:0.044345636 204:0.10465182 205:0.042445511 206:0.28748125 207:0.29091713 208:0.12469349 209:0.16080154 210:0.10438111 211:0.29091713 212:0.014137456 213:0.20083623 214:0.07458435 215:0.29091713 216:0.34663588 217:0.010960982 218:0.022711514 219:0.00032319728 220:0.34663588 221:0.050854769 222:0.17337768 223:0.08248955 224:0.34663588 225:0.34663588 226:0.022886131 227:0.006074124 228:0.0012953107 229:0.085592262 230:0.0078866538 231:0.053307209 232:0.03971456 233:0.34663588 234:0.20260122 235:0 236:0 237:0 238:0.053891812 239:0.011396209 240:0.046438724 241:0.027427807 242:0.23461476 243:0.34663588 244:0 245:0.00059436919 246:0.0012157725 247:0.021292051 248:0.0053402125 249:0.015733002 250:0.014831324 251:0.34663588 252:0.27423245 253:0.14143422 254:0.0011543146 255:0.0010701051 256:0.038022704 257:0.046148151 258:0.017500326 259:0.015526536 260:0.27423245 261:0.27423245 262:0.27423245 263:0.019055778 264:0.076995224 265:0.27423245 266:0.27423245 267:0.037266314 268:0.1352597 269:0.27423245 270:0.24423806 271:0.02575196 272:0.00071026827 273:0.0014528421 274:0.070658952 275:0.034956288 276:0.013467446 277:0.004330473 278:0.24274178 279:0.19477633 280:0.18149242 281:0.023386983 282:0.032437183 283:0.27423245 284:0.20949024 285:0.027825072 286:0.16592561 287:0.27423245 288:0.24710611 289:0.24710611 290:0.068986148 291:0.24710611 292:0.24710611 293:0.17206116 294:0.020249724 295:0.10015661 296:0.24710611 297:0.24710611 298:0.24710611 299:0.16332905 300:0.22495826 301:0.24710611 302:0.021330267 303:0.058592554 304:0.024892932 305:0.24710611 306:0.16799681 307:0.24710611 308:0.041631829 309:0.13410354 310:0.2443707 311:0.11181191 312:0.0097190524 313:0.13190961 314:0.19983591 315:0.07598535 316:0.1613405 317:0.010407955 318:0.098360181 319:0.19263303 320:0.017042998 321:0.018617643 322:0.0087464685 323:0.057652734 324:0 325:0 326:0 327:0 328:0 329:0 330:0 331:0 332:0 333:0 334:0 335:0 336:0 337:0 338:0 339:0 340:0 341:0 342:0 343:0 344:0 345:0 346:0 347:0 348:0 349:0 350:0 351:0 352:0 353:0 354:0 355:0 356:0 357:0 358:0 359:0 360:0 361:0 362:0 363:0 364:0 365:0 366:0 367:0 368:0 369:0 370:0 371:0 372:0 373:0 374:0 375:0 376:0 377:0 378:0 379:0 380:0 381:0 382:0 383:0 384:0 385:0 386:0 387:0 388:0 389:0 390:0 391:0 392:0 393:0 394:0 395:0 396:0 397:0 398:0 399:0 400:0 401:0 402:0 403:0 404:0 405:0 406:0 407:0 408:0 409:0 410:0 411:0 412:0 413:0 414:0 415:0 416:0 417:0 418:0 419:0 420:0 421:0 422:0 423:0 424:0 425:0 426:0 427:0 428:0 429:0 430:0 431:0 432:0 433:0 434:0 435:0 436:0 437:0 438:0 439:0 440:0 441:0 442:0 443:0 444:0 445:0 446:0 447:0 448:0 449:0 450:0 451:0 452:0 453:0 454:0 455:0 456:0 457:0 458:0 459:0 460:0 461:0 462:0 463:0 464:0 465:0 466:0 467:0 468:0 469:0 470:0 471:0 472:0 473:0 474:0 475:0 476:0 477:0 478:0 479:0 480:0 481:0 482:0 483:0 484:0 485:0 486:0 487:0 488:0 489:0 490:0 491:0 492:0 493:0 494:0 495:0 496:0 497:0 498:0 499:0 500:0 501:0 502:0 503:0 504:0 505:0 506:0 507:0 508:0 509:0 510:0 511:0 512:0 513:0 514:0 515:0 516:0 517:0 518:0 519:0 520:0 521:0 522:0 523:0 524:0 525:0 526:0 527:0 528:0 529:0 530:0 531:0 532:0 533:0 534:0 535:0 536:0 537:0 538:0 539:0 540:0 541:0 542:0 543:0 544:0 545:0 546:0 547:0 548:0 549:0 550:0 551:0 552:0 553:0 554:0 555:0 556:0 557:0 558:0 559:0 560:0 561:0 562:0 563:0 564:0 565:0 566:0 567:0 568:0 569:0 570:0 571:0 572:0 573:0 574:0 575:0 576:0 577:0 578:0 579:0 580:0 581:0 582:0 583:0 584:0 585:0 586:0 587:0 588:0 589:0 590:0 591:0 592:0 593:0 594:0 595:0 596:0 597:0 598:0 599:0 600:0 601:0 602:0 603:0 604:0 605:0 606:0 607:0 608:0 609:0 610:0 611:0 612:0 613:0 614:0 615:0 616:0 617:0 618:0 619:0 620:0 621:0 622:0 623:0 624:0 625:0 626:0 627:0 628:0 629:0 630:0 631:0 632:0 633:0 634:0 635:0 636:0 637:0 638:0 639:0 640:0 641:0 642:0 643:0 644:0 645:0 646:0 647:0 648:0 649:0 650:0 651:0 652:0 653:0 654:0 655:0 656:0 657:0 658:0 659:0 660:0 661:0 662:0 663:0 664:0 665:0 666:0 667:0 668:0 669:0 670:0 671:0 672:0 673:0 674:0 675:0 676:0 677:0 678:0 679:0 680:0 681:0 682:0 683:0 684:0 685:0 686:0 687:0 688:0 689:0 690:0 691:0 692:0 693:0 694:0 695:0 696:0 697:0 698:0 699:0 700:0 701:0 702:0 703:0 704:0 705:0 706:0 707:0 708:0 709:0 710:0 711:0 712:0 713:0 714:0 715:0 716:0 717:0 718:0 719:0 720:0 721:0 722:0 723:0 724:0 725:0 726:0 727:0 728:0 729:0 730:0 731:0 732:0 733:0 734:0 735:0 736:0 737:0 738:0 739:0 740:0 741:0 742:0 743:0 744:0 745:0 746:0 747:0 748:0 749:0 750:0 751:0 752:0 753:0 754:0 755:0 756:0 757:0 758:0 759:0 760:0 761:0 762:0 763:0 764:0 765:0 766:0 767:0 768:0 769:0 770:0 771:0 772:0 773:0 774:0 775:0 776:0 777:0 778:0 779:0 780:0 781:0 782:0 783:0 784:0 785:0 786:0 787:0 788:0 789:0 790:0 791:0 792:0 793:0 794:0 795:0 796:0 797:0 798:0 799:0 800:0 801:0 802:0 803:0 804:0 805:0 806:0 807:0 808:0 809:0 810:0 811:0 812:0 813:0 814:0 815:0 816:0 817:0 818:0 819:0 820:0 821:0 822:0 823:0 824:0 825:0 826:0 827:0 828:0 829:0 830:0 831:0 832:0 833:0 834:0 835:0 836:0 837:0 838:0 839:0 840:0 841:0 842:0 843:0 844:0 845:0 846:0 847:0 848:0 849:0 850:0 851:0 852:0 853:0 854:0 855:0 856:0 857:0 858:0 859:0 860:0 861:0 862:0 863:0 864:0 865:0 866:0 867:0 868:0 869:0 870:0 871:0 872:0 873:0 874:0 875:0 876:0 877:0 878:0 879:0 880:0 881:0 882:0 883:0 884:0 885:0 886:0 887:0 888:0 889:0 890:0 891:0 892:0 893:0 894:0 895:0 896:0 897:0 898:0 899:0 
